<?xml version="1.0"?>
<opencv_storage>
<cascade>
  <stageType>BOOST</stageType>
  <featureType>HAAR</featureType>
  <height>25</height>
  <width>15</width>
  <stageParams>
    <boostType>GAB</boostType>
    <minHitRate>9.9500000476837158e-001</minHitRate>
    <maxFalseAlarm>3.0000001192092896e-001</maxFalseAlarm>
    <weightTrimRate>9.4999999999999996e-001</weightTrimRate>
    <maxDepth>1</maxDepth>
    <maxWeakCount>300</maxWeakCount></stageParams>
  <featureParams>
    <maxCatCount>0</maxCatCount>
    <featSize>1</featSize>
    <mode>ALL</mode></featureParams>
  <stageNum>12</stageNum>
  <stages>
    <!-- stage 0 -->
    <_>
      <maxWeakCount>11</maxWeakCount>
      <stageThreshold>-1.6251399517059326e+000</stageThreshold>
      <weakClassifiers>
        <_>
          <internalNodes>
            0 -1 694 -7.2086244821548462e-002</internalNodes>
          <leafValues>
            6.8792390823364258e-001 -8.1407219171524048e-001</leafValues></_>
        <_>
          <internalNodes>
            0 -1 138 7.6971486210823059e-002</internalNodes>
          <leafValues>
            -4.6762531995773315e-001 7.1302038431167603e-001</leafValues></_>
        <_>
          <internalNodes>
            0 -1 388 5.7955548167228699e-002</internalNodes>
          <leafValues>
            -2.7737632393836975e-001 8.8490480184555054e-001</leafValues></_>
        <_>
          <internalNodes>
            0 -1 313 -1.7470759153366089e-001</internalNodes>
          <leafValues>
            7.7989900112152100e-001 -2.0272587239742279e-001</leafValues></_>
        <_>
          <internalNodes>
            0 -1 570 -3.0315775424242020e-002</internalNodes>
          <leafValues>
            7.3579686880111694e-001 -2.9271504282951355e-001</leafValues></_>
        <_>
          <internalNodes>
            0 -1 466 -2.2699251770973206e-001</internalNodes>
          <leafValues>
            -8.7592130899429321e-001 2.6184245944023132e-001</leafValues></_>
        <_>
          <internalNodes>
            0 -1 472 2.2222604602575302e-002</internalNodes>
          <leafValues>
            -2.3584529757499695e-001 5.2793049812316895e-001</leafValues></_>
        <_>
          <internalNodes>
            0 -1 238 -1.5160607174038887e-002</internalNodes>
          <leafValues>
            6.6588300466537476e-001 -2.1023984253406525e-001</leafValues></_>
        <_>
          <internalNodes>
            0 -1 293 2.2018256783485413e-001</internalNodes>
          <leafValues>
            -1.4480605721473694e-001 7.7717304229736328e-001</leafValues></_>
        <_>
          <internalNodes>
            0 -1 774 4.9290269613265991e-002</internalNodes>
          <leafValues>
            1.8850675225257874e-001 -7.3545551300048828e-001</leafValues></_>
        <_>
          <internalNodes>
            0 -1 610 -5.6491583585739136e-002</internalNodes>
          <leafValues>
            5.9895467758178711e-001 -1.9187590479850769e-001</leafValues></_></weakClassifiers></_>
    <!-- stage 1 -->
    <_>
      <maxWeakCount>21</maxWeakCount>
      <stageThreshold>-1.9631267786026001e+000</stageThreshold>
      <weakClassifiers>
        <_>
          <internalNodes>
            0 -1 272 4.8581756651401520e-002</internalNodes>
          <leafValues>
            -8.0708128213882446e-001 3.7584605813026428e-001</leafValues></_>
        <_>
          <internalNodes>
            0 -1 400 -2.9397435486316681e-002</internalNodes>
          <leafValues>
            6.1153280735015869e-001 -4.8089566826820374e-001</leafValues></_>
        <_>
          <internalNodes>
            0 -1 314 -3.1789845228195190e-001</internalNodes>
          <leafValues>
            7.8902244567871094e-001 -2.0238314568996429e-001</leafValues></_>
        <_>
          <internalNodes>
            0 -1 674 6.5800379961729050e-003</internalNodes>
          <leafValues>
            -1.9626371562480927e-001 6.5736478567123413e-001</leafValues></_>
        <_>
          <internalNodes>
            0 -1 475 -1.6969431191682816e-002</internalNodes>
          <leafValues>
            6.9301313161849976e-001 -1.1920227110385895e-001</leafValues></_>
        <_>
          <internalNodes>
            0 -1 84 4.4716805219650269e-002</internalNodes>
          <leafValues>
            -1.9045864045619965e-001 5.1003587245941162e-001</leafValues></_>
        <_>
          <internalNodes>
            0 -1 190 1.0721042752265930e-002</internalNodes>
          <leafValues>
            -1.9191724061965942e-001 5.1996380090713501e-001</leafValues></_>
        <_>
          <internalNodes>
            0 -1 238 1.9956806674599648e-002</internalNodes>
          <leafValues>
            -2.1976803243160248e-001 5.0571066141128540e-001</leafValues></_>
        <_>
          <internalNodes>
            0 -1 363 -6.1682559549808502e-002</internalNodes>
          <leafValues>
            8.0145609378814697e-001 -1.0254951566457748e-001</leafValues></_>
        <_>
          <internalNodes>
            0 -1 289 -2.4292188882827759e-001</internalNodes>
          <leafValues>
            6.9960737228393555e-001 -1.0233960300683975e-001</leafValues></_>
        <_>
          <internalNodes>
            0 -1 371 1.0334219038486481e-001</internalNodes>
          <leafValues>
            -1.6020181775093079e-001 4.8573195934295654e-001</leafValues></_>
        <_>
          <internalNodes>
            0 -1 200 1.1884644627571106e-002</internalNodes>
          <leafValues>
            1.7845858633518219e-001 -6.3060945272445679e-001</leafValues></_>
        <_>
          <internalNodes>
            0 -1 344 -4.9679703079164028e-003</internalNodes>
          <leafValues>
            -6.3906025886535645e-001 1.2072710692882538e-001</leafValues></_>
        <_>
          <internalNodes>
            0 -1 800 -6.0332454741001129e-003</internalNodes>
          <leafValues>
            -6.1882525682449341e-001 1.1507444083690643e-001</leafValues></_>
        <_>
          <internalNodes>
            0 -1 128 1.1873580515384674e-002</internalNodes>
          <leafValues>
            1.0300634056329727e-001 -5.8880245685577393e-001</leafValues></_>
        <_>
          <internalNodes>
            0 -1 134 -8.1199277192354202e-003</internalNodes>
          <leafValues>
            -6.6079556941986084e-001 8.4339156746864319e-002</leafValues></_>
        <_>
          <internalNodes>
            0 -1 145 -5.2882306277751923e-002</internalNodes>
          <leafValues>
            5.0660252571105957e-001 -1.2996160984039307e-001</leafValues></_>
        <_>
          <internalNodes>
            0 -1 649 -2.3115944117307663e-002</internalNodes>
          <leafValues>
            4.4238254427909851e-001 -1.7129151523113251e-001</leafValues></_>
        <_>
          <internalNodes>
            0 -1 672 2.0139049738645554e-002</internalNodes>
          <leafValues>
            -1.0410805791616440e-001 5.5971127748489380e-001</leafValues></_>
        <_>
          <internalNodes>
            0 -1 799 4.3108966201543808e-003</internalNodes>
          <leafValues>
            1.0123755782842636e-001 -6.2685883045196533e-001</leafValues></_>
        <_>
          <internalNodes>
            0 -1 243 1.4916403219103813e-002</internalNodes>
          <leafValues>
            -1.3348171114921570e-001 4.8477530479431152e-001</leafValues></_></weakClassifiers></_>
    <!-- stage 2 -->
    <_>
      <maxWeakCount>30</maxWeakCount>
      <stageThreshold>-1.9130507707595825e+000</stageThreshold>
      <weakClassifiers>
        <_>
          <internalNodes>
            0 -1 311 -3.4675604104995728e-001</internalNodes>
          <leafValues>
            6.7411494255065918e-001 -6.3702303171157837e-001</leafValues></_>
        <_>
          <internalNodes>
            0 -1 210 2.3643326014280319e-002</internalNodes>
          <leafValues>
            -4.6200242638587952e-001 5.0392824411392212e-001</leafValues></_>
        <_>
          <internalNodes>
            0 -1 38 -2.8627879917621613e-002</internalNodes>
          <leafValues>
            4.3452042341232300e-001 -3.0821722745895386e-001</leafValues></_>
        <_>
          <internalNodes>
            0 -1 245 -1.6323434188961983e-002</internalNodes>
          <leafValues>
            5.6291866302490234e-001 -1.7400690913200378e-001</leafValues></_>
        <_>
          <internalNodes>
            0 -1 722 -2.9674716293811798e-002</internalNodes>
          <leafValues>
            4.5463520288467407e-001 -2.0798887312412262e-001</leafValues></_>
        <_>
          <internalNodes>
            0 -1 752 -5.2698314189910889e-002</internalNodes>
          <leafValues>
            6.6093504428863525e-001 -1.5003877878189087e-001</leafValues></_>
        <_>
          <internalNodes>
            0 -1 297 -2.0552046597003937e-002</internalNodes>
          <leafValues>
            5.9406924247741699e-001 -1.4702606201171875e-001</leafValues></_>
        <_>
          <internalNodes>
            0 -1 407 1.9042756175622344e-003</internalNodes>
          <leafValues>
            1.5562801063060760e-001 -5.8934229612350464e-001</leafValues></_>
        <_>
          <internalNodes>
            0 -1 343 -2.9612448997795582e-003</internalNodes>
          <leafValues>
            -5.5747258663177490e-001 1.5942691266536713e-001</leafValues></_>
        <_>
          <internalNodes>
            0 -1 807 -2.4060916155576706e-002</internalNodes>
          <leafValues>
            6.5585446357727051e-001 -1.4757204055786133e-001</leafValues></_>
        <_>
          <internalNodes>
            0 -1 11 5.3670585155487061e-002</internalNodes>
          <leafValues>
            1.5007233619689941e-001 -6.8282759189605713e-001</leafValues></_>
        <_>
          <internalNodes>
            0 -1 600 -2.2803394123911858e-002</internalNodes>
          <leafValues>
            4.3183639645576477e-001 -1.9339442253112793e-001</leafValues></_>
        <_>
          <internalNodes>
            0 -1 524 -1.9103053957223892e-002</internalNodes>
          <leafValues>
            5.8731901645660400e-001 -1.0027322173118591e-001</leafValues></_>
        <_>
          <internalNodes>
            0 -1 487 -4.9306247383356094e-002</internalNodes>
          <leafValues>
            5.0913065671920776e-001 -1.1362070590257645e-001</leafValues></_>
        <_>
          <internalNodes>
            0 -1 165 -4.3998216278851032e-003</internalNodes>
          <leafValues>
            -6.6341334581375122e-001 1.0152698308229446e-001</leafValues></_>
        <_>
          <internalNodes>
            0 -1 149 9.1867521405220032e-003</internalNodes>
          <leafValues>
            6.5340906381607056e-002 -5.8095878362655640e-001</leafValues></_>
        <_>
          <internalNodes>
            0 -1 468 -3.7478968501091003e-002</internalNodes>
          <leafValues>
            6.9033890962600708e-001 -7.8115984797477722e-002</leafValues></_>
        <_>
          <internalNodes>
            0 -1 170 7.4854664504528046e-002</internalNodes>
          <leafValues>
            -1.2302782386541367e-001 4.0823748707771301e-001</leafValues></_>
        <_>
          <internalNodes>
            0 -1 273 -4.3377112597227097e-002</internalNodes>
          <leafValues>
            4.3846896290779114e-001 -1.0812521725893021e-001</leafValues></_>
        <_>
          <internalNodes>
            0 -1 6 -3.2526290416717529e-001</internalNodes>
          <leafValues>
            3.9165654778480530e-001 -1.1521677672863007e-001</leafValues></_>
        <_>
          <internalNodes>
            0 -1 5 -3.1655758619308472e-002</internalNodes>
          <leafValues>
            -5.4603415727615356e-001 1.0829363763332367e-001</leafValues></_>
        <_>
          <internalNodes>
            0 -1 741 -1.5229771379381418e-003</internalNodes>
          <leafValues>
            -5.3613418340682983e-001 6.6289119422435760e-002</leafValues></_>
        <_>
          <internalNodes>
            0 -1 38 4.4522762298583984e-002</internalNodes>
          <leafValues>
            -7.6075531542301178e-002 6.2845832109451294e-001</leafValues></_>
        <_>
          <internalNodes>
            0 -1 582 2.6979606598615646e-002</internalNodes>
          <leafValues>
            -1.5466867387294769e-001 3.0504372715950012e-001</leafValues></_>
        <_>
          <internalNodes>
            0 -1 626 -2.0323577523231506e-001</internalNodes>
          <leafValues>
            4.7938537597656250e-001 -9.2802703380584717e-002</leafValues></_>
        <_>
          <internalNodes>
            0 -1 50 3.1132256984710693e-001</internalNodes>
          <leafValues>
            -2.0901152491569519e-001 2.2240902483463287e-001</leafValues></_>
        <_>
          <internalNodes>
            0 -1 392 -1.2886178493499756e-001</internalNodes>
          <leafValues>
            5.1386284828186035e-001 -8.9367248117923737e-002</leafValues></_>
        <_>
          <internalNodes>
            0 -1 526 -4.5659184455871582e-002</internalNodes>
          <leafValues>
            3.5739445686340332e-001 -1.2018067389726639e-001</leafValues></_>
        <_>
          <internalNodes>
            0 -1 280 1.6725984215736389e-001</internalNodes>
          <leafValues>
            6.4147800207138062e-002 -7.2877216339111328e-001</leafValues></_>
        <_>
          <internalNodes>
            0 -1 99 1.7514480277895927e-002</internalNodes>
          <leafValues>
            -1.0654997825622559e-001 3.8574376702308655e-001</leafValues></_></weakClassifiers></_>
    <!-- stage 3 -->
    <_>
      <maxWeakCount>55</maxWeakCount>
      <stageThreshold>-2.0173692703247070e+000</stageThreshold>
      <weakClassifiers>
        <_>
          <internalNodes>
            0 -1 588 1.1217807233333588e-001</internalNodes>
          <leafValues>
            -6.0642522573471069e-001 6.4563655853271484e-001</leafValues></_>
        <_>
          <internalNodes>
            0 -1 693 -9.3424037098884583e-002</internalNodes>
          <leafValues>
            4.0366497635841370e-001 -4.2621350288391113e-001</leafValues></_>
        <_>
          <internalNodes>
            0 -1 163 1.6624230891466141e-002</internalNodes>
          <leafValues>
            -3.2970666885375977e-001 3.1330439448356628e-001</leafValues></_>
        <_>
          <internalNodes>
            0 -1 479 -1.6644325107336044e-002</internalNodes>
          <leafValues>
            6.2518942356109619e-001 -1.0661130398511887e-001</leafValues></_>
        <_>
          <internalNodes>
            0 -1 24 -2.8568893671035767e-001</internalNodes>
          <leafValues>
            7.7842056751251221e-001 -6.2610425055027008e-002</leafValues></_>
        <_>
          <internalNodes>
            0 -1 116 3.5677129030227661e-001</internalNodes>
          <leafValues>
            -1.0335481911897659e-001 5.8461785316467285e-001</leafValues></_>
        <_>
          <internalNodes>
            0 -1 583 -6.7239105701446533e-002</internalNodes>
          <leafValues>
            5.6404709815979004e-001 -1.4021076261997223e-001</leafValues></_>
        <_>
          <internalNodes>
            0 -1 785 -5.7345330715179443e-003</internalNodes>
          <leafValues>
            -4.9381658434867859e-001 1.4339385926723480e-001</leafValues></_>
        <_>
          <internalNodes>
            0 -1 528 9.7006373107433319e-003</internalNodes>
          <leafValues>
            8.0212749540805817e-002 -6.1218249797821045e-001</leafValues></_>
        <_>
          <internalNodes>
            0 -1 603 -7.8137414529919624e-003</internalNodes>
          <leafValues>
            -6.1733752489089966e-001 9.8044969141483307e-002</leafValues></_>
        <_>
          <internalNodes>
            0 -1 495 7.6342090964317322e-002</internalNodes>
          <leafValues>
            -8.8390685617923737e-002 6.0566323995590210e-001</leafValues></_>
        <_>
          <internalNodes>
            0 -1 202 2.1014085505157709e-003</internalNodes>
          <leafValues>
            8.9743942022323608e-002 -5.2556556463241577e-001</leafValues></_>
        <_>
          <internalNodes>
            0 -1 133 -7.8479237854480743e-003</internalNodes>
          <leafValues>
            -6.7503917217254639e-001 7.9681910574436188e-002</leafValues></_>
        <_>
          <internalNodes>
            0 -1 410 1.3807678595185280e-002</internalNodes>
          <leafValues>
            -1.3720980286598206e-001 4.1028419137001038e-001</leafValues></_>
        <_>
          <internalNodes>
            0 -1 133 7.5135175138711929e-003</internalNodes>
          <leafValues>
            1.1252338439226151e-001 -6.4657258987426758e-001</leafValues></_>
        <_>
          <internalNodes>
            0 -1 264 -2.8182831592857838e-003</internalNodes>
          <leafValues>
            -5.5316627025604248e-001 5.9461358934640884e-002</leafValues></_>
        <_>
          <internalNodes>
            0 -1 223 -1.5580770373344421e-001</internalNodes>
          <leafValues>
            3.6509868502616882e-001 -1.3882166147232056e-001</leafValues></_>
        <_>
          <internalNodes>
            0 -1 434 -1.3790637254714966e-001</internalNodes>
          <leafValues>
            4.8499700427055359e-001 -8.0953881144523621e-002</leafValues></_>
        <_>
          <internalNodes>
            0 -1 639 1.4884536154568195e-002</internalNodes>
          <leafValues>
            -8.0786310136318207e-002 5.3827059268951416e-001</leafValues></_>
        <_>
          <internalNodes>
            0 -1 599 -9.0376380831003189e-003</internalNodes>
          <leafValues>
            3.5563880205154419e-001 -1.0968518257141113e-001</leafValues></_>
        <_>
          <internalNodes>
            0 -1 651 1.8296413123607635e-002</internalNodes>
          <leafValues>
            -7.5912080705165863e-002 6.0991287231445313e-001</leafValues></_>
        <_>
          <internalNodes>
            0 -1 8 2.6432290673255920e-002</internalNodes>
          <leafValues>
            -1.7105233669281006e-001 2.7077639102935791e-001</leafValues></_>
        <_>
          <internalNodes>
            0 -1 242 -1.6507744789123535e-001</internalNodes>
          <leafValues>
            4.7792035341262817e-001 -9.4892151653766632e-002</leafValues></_>
        <_>
          <internalNodes>
            0 -1 455 -1.7269724979996681e-002</internalNodes>
          <leafValues>
            3.8151738047599792e-001 -1.0983025282621384e-001</leafValues></_>
        <_>
          <internalNodes>
            0 -1 690 1.1594760231673717e-002</internalNodes>
          <leafValues>
            -1.1129014939069748e-001 3.3691766858100891e-001</leafValues></_>
        <_>
          <internalNodes>
            0 -1 808 -1.3633415102958679e-002</internalNodes>
          <leafValues>
            -6.0082298517227173e-001 6.7737087607383728e-002</leafValues></_>
        <_>
          <internalNodes>
            0 -1 34 -1.7866048216819763e-001</internalNodes>
          <leafValues>
            -7.6020133495330811e-001 4.1513070464134216e-002</leafValues></_>
        <_>
          <internalNodes>
            0 -1 337 1.1733185499906540e-002</internalNodes>
          <leafValues>
            -1.0908238589763641e-001 3.4221148490905762e-001</leafValues></_>
        <_>
          <internalNodes>
            0 -1 806 -4.8016691580414772e-003</internalNodes>
          <leafValues>
            -7.2473436594009399e-001 5.1566515117883682e-002</leafValues></_>
        <_>
          <internalNodes>
            0 -1 75 -7.5007192790508270e-003</internalNodes>
          <leafValues>
            2.5185352563858032e-001 -1.4202110469341278e-001</leafValues></_>
        <_>
          <internalNodes>
            0 -1 590 -2.2442482411861420e-002</internalNodes>
          <leafValues>
            2.4061225354671478e-001 -1.4089570939540863e-001</leafValues></_>
        <_>
          <internalNodes>
            0 -1 351 -5.9806056320667267e-002</internalNodes>
          <leafValues>
            3.6730846762657166e-001 -9.0579837560653687e-002</leafValues></_>
        <_>
          <internalNodes>
            0 -1 192 2.9117142781615257e-002</internalNodes>
          <leafValues>
            4.2693700641393661e-002 -7.1741634607315063e-001</leafValues></_>
        <_>
          <internalNodes>
            0 -1 158 -5.6111458688974380e-002</internalNodes>
          <leafValues>
            -7.1160662174224854e-001 3.5722028464078903e-002</leafValues></_>
        <_>
          <internalNodes>
            0 -1 270 -1.0586555302143097e-001</internalNodes>
          <leafValues>
            -7.4173212051391602e-001 3.3193625509738922e-002</leafValues></_>
        <_>
          <internalNodes>
            0 -1 647 6.9847996346652508e-003</internalNodes>
          <leafValues>
            3.0989645048975945e-002 -7.7913534641265869e-001</leafValues></_>
        <_>
          <internalNodes>
            0 -1 726 3.0043780803680420e-002</internalNodes>
          <leafValues>
            2.5739155709743500e-002 -8.5128879547119141e-001</leafValues></_>
        <_>
          <internalNodes>
            0 -1 509 -5.5537477135658264e-002</internalNodes>
          <leafValues>
            3.2640528678894043e-001 -9.0293265879154205e-002</leafValues></_>
        <_>
          <internalNodes>
            0 -1 560 -1.1899802833795547e-001</internalNodes>
          <leafValues>
            3.7325438857078552e-001 -7.3934875428676605e-002</leafValues></_>
        <_>
          <internalNodes>
            0 -1 137 2.3963520303368568e-002</internalNodes>
          <leafValues>
            -1.0457414388656616e-001 3.0054581165313721e-001</leafValues></_>
        <_>
          <internalNodes>
            0 -1 718 -1.7708687111735344e-002</internalNodes>
          <leafValues>
            2.8643918037414551e-001 -1.0045628994703293e-001</leafValues></_>
        <_>
          <internalNodes>
            0 -1 597 9.2176152393221855e-003</internalNodes>
          <leafValues>
            -1.0655273497104645e-001 2.9579246044158936e-001</leafValues></_>
        <_>
          <internalNodes>
            0 -1 333 7.6030939817428589e-003</internalNodes>
          <leafValues>
            -1.2088721245527267e-001 2.5691181421279907e-001</leafValues></_>
        <_>
          <internalNodes>
            0 -1 782 4.0463847108185291e-003</internalNodes>
          <leafValues>
            -1.3183876872062683e-001 2.1324723958969116e-001</leafValues></_>
        <_>
          <internalNodes>
            0 -1 63 -5.7698391377925873e-002</internalNodes>
          <leafValues>
            -5.7107716798782349e-001 5.3185448050498962e-002</leafValues></_>
        <_>
          <internalNodes>
            0 -1 534 1.8702112138271332e-002</internalNodes>
          <leafValues>
            -1.5002527832984924e-001 1.9817110896110535e-001</leafValues></_>
        <_>
          <internalNodes>
            0 -1 355 -3.7422217428684235e-002</internalNodes>
          <leafValues>
            3.6545428633689880e-001 -8.2261450588703156e-002</leafValues></_>
        <_>
          <internalNodes>
            0 -1 160 4.0244441479444504e-003</internalNodes>
          <leafValues>
            6.2232196331024170e-002 -5.2842968702316284e-001</leafValues></_>
        <_>
          <internalNodes>
            0 -1 342 -1.9989470019936562e-003</internalNodes>
          <leafValues>
            -5.4141521453857422e-001 4.6907581388950348e-002</leafValues></_>
        <_>
          <internalNodes>
            0 -1 736 -1.3096828013658524e-002</internalNodes>
          <leafValues>
            3.2414883375167847e-001 -8.2211688160896301e-002</leafValues></_>
        <_>
          <internalNodes>
            0 -1 619 -7.7576912939548492e-002</internalNodes>
          <leafValues>
            4.5636558532714844e-001 -5.2367985248565674e-002</leafValues></_>
        <_>
          <internalNodes>
            0 -1 636 -5.8553437702357769e-003</internalNodes>
          <leafValues>
            2.6129749417304993e-001 -9.4695106148719788e-002</leafValues></_>
        <_>
          <internalNodes>
            0 -1 448 5.0675973296165466e-002</internalNodes>
          <leafValues>
            -9.3877971172332764e-002 2.6746714115142822e-001</leafValues></_>
        <_>
          <internalNodes>
            0 -1 435 1.1818362772464752e-001</internalNodes>
          <leafValues>
            4.5935548841953278e-002 -6.3326281309127808e-001</leafValues></_>
        <_>
          <internalNodes>
            0 -1 22 3.8446130929514766e-004</internalNodes>
          <leafValues>
            -1.5554963052272797e-001 1.7050321400165558e-001</leafValues></_></weakClassifiers></_>
    <!-- stage 4 -->
    <_>
      <maxWeakCount>67</maxWeakCount>
      <stageThreshold>-1.9485298395156860e+000</stageThreshold>
      <weakClassifiers>
        <_>
          <internalNodes>
            0 -1 586 -6.6238045692443848e-002</internalNodes>
          <leafValues>
            6.7176431417465210e-001 -5.9806954860687256e-001</leafValues></_>
        <_>
          <internalNodes>
            0 -1 24 2.7982944250106812e-001</internalNodes>
          <leafValues>
            -3.3744829893112183e-001 5.2063155174255371e-001</leafValues></_>
        <_>
          <internalNodes>
            0 -1 167 4.5085638761520386e-002</internalNodes>
          <leafValues>
            -2.3081542551517487e-001 4.3220773339271545e-001</leafValues></_>
        <_>
          <internalNodes>
            0 -1 684 -1.8921539187431335e-002</internalNodes>
          <leafValues>
            4.8016011714935303e-001 -1.5273953974246979e-001</leafValues></_>
        <_>
          <internalNodes>
            0 -1 705 1.8327537924051285e-002</internalNodes>
          <leafValues>
            -1.3539023697376251e-001 5.5843317508697510e-001</leafValues></_>
        <_>
          <internalNodes>
            0 -1 135 -9.7133498638868332e-003</internalNodes>
          <leafValues>
            -4.9484416842460632e-001 1.3455811142921448e-001</leafValues></_>
        <_>
          <internalNodes>
            0 -1 127 1.1846482753753662e-002</internalNodes>
          <leafValues>
            1.2395086139440536e-001 -5.3306931257247925e-001</leafValues></_>
        <_>
          <internalNodes>
            0 -1 8 -2.2439997643232346e-002</internalNodes>
          <leafValues>
            4.4585660099983215e-001 -1.2993499636650085e-001</leafValues></_>
        <_>
          <internalNodes>
            0 -1 707 9.7985491156578064e-003</internalNodes>
          <leafValues>
            -1.1911695450544357e-001 4.7210860252380371e-001</leafValues></_>
        <_>
          <internalNodes>
            0 -1 119 5.9385155327618122e-003</internalNodes>
          <leafValues>
            8.7143994867801666e-002 -5.9211844205856323e-001</leafValues></_>
        <_>
          <internalNodes>
            0 -1 543 6.6975675523281097e-002</internalNodes>
          <leafValues>
            -1.2327117472887039e-001 4.0334329009056091e-001</leafValues></_>
        <_>
          <internalNodes>
            0 -1 624 4.7176703810691833e-002</internalNodes>
          <leafValues>
            -1.5997993946075439e-001 3.2146406173706055e-001</leafValues></_>
        <_>
          <internalNodes>
            0 -1 199 8.3185918629169464e-003</internalNodes>
          <leafValues>
            9.5581896603107452e-002 -5.3733414411544800e-001</leafValues></_>
        <_>
          <internalNodes>
            0 -1 783 -1.0797622613608837e-002</internalNodes>
          <leafValues>
            -5.7104659080505371e-001 6.6143624484539032e-002</leafValues></_>
        <_>
          <internalNodes>
            0 -1 261 -9.6789980307221413e-003</internalNodes>
          <leafValues>
            -5.7453703880310059e-001 7.4281655251979828e-002</leafValues></_>
        <_>
          <internalNodes>
            0 -1 110 1.3172220438718796e-002</internalNodes>
          <leafValues>
            5.1845859736204147e-002 -6.9281905889511108e-001</leafValues></_>
        <_>
          <internalNodes>
            0 -1 250 -1.5867080539464951e-002</internalNodes>
          <leafValues>
            4.4661539793014526e-001 -1.0089319199323654e-001</leafValues></_>
        <_>
          <internalNodes>
            0 -1 398 -1.5642736107110977e-002</internalNodes>
          <leafValues>
            4.1672131419181824e-001 -1.1661354452371597e-001</leafValues></_>
        <_>
          <internalNodes>
            0 -1 10 1.1639080941677094e-001</internalNodes>
          <leafValues>
            5.3063102066516876e-002 -7.6825660467147827e-001</leafValues></_>
        <_>
          <internalNodes>
            0 -1 303 -3.8272470235824585e-001</internalNodes>
          <leafValues>
            -7.3895919322967529e-001 3.7785880267620087e-002</leafValues></_>
        <_>
          <internalNodes>
            0 -1 714 -9.4910524785518646e-003</internalNodes>
          <leafValues>
            -4.7855091094970703e-001 6.8649142980575562e-002</leafValues></_>
        <_>
          <internalNodes>
            0 -1 745 1.6879716422408819e-003</internalNodes>
          <leafValues>
            -1.8806865811347961e-001 2.2522130608558655e-001</leafValues></_>
        <_>
          <internalNodes>
            0 -1 687 -1.1047841981053352e-002</internalNodes>
          <leafValues>
            3.1802293658256531e-001 -1.2586399912834167e-001</leafValues></_>
        <_>
          <internalNodes>
            0 -1 790 7.2766491211950779e-003</internalNodes>
          <leafValues>
            4.3859146535396576e-002 -7.5240099430084229e-001</leafValues></_>
        <_>
          <internalNodes>
            0 -1 329 3.7978945765644312e-003</internalNodes>
          <leafValues>
            -1.4030785858631134e-001 2.5546115636825562e-001</leafValues></_>
        <_>
          <internalNodes>
            0 -1 717 1.4771098271012306e-002</internalNodes>
          <leafValues>
            -8.6563937366008759e-002 3.8456541299819946e-001</leafValues></_>
        <_>
          <internalNodes>
            0 -1 97 8.0950036644935608e-002</internalNodes>
          <leafValues>
            5.8105770498514175e-002 -6.0112601518630981e-001</leafValues></_>
        <_>
          <internalNodes>
            0 -1 267 -8.9899823069572449e-003</internalNodes>
          <leafValues>
            -5.3358817100524902e-001 5.4485905915498734e-002</leafValues></_>
        <_>
          <internalNodes>
            0 -1 187 -6.9201096892356873e-002</internalNodes>
          <leafValues>
            -4.9618330597877502e-001 5.5555611848831177e-002</leafValues></_>
        <_>
          <internalNodes>
            0 -1 665 -2.2665487602353096e-002</internalNodes>
          <leafValues>
            -5.8978593349456787e-001 4.3833933770656586e-002</leafValues></_>
        <_>
          <internalNodes>
            0 -1 330 -1.0921448469161987e-002</internalNodes>
          <leafValues>
            3.2260680198669434e-001 -9.5255509018898010e-002</leafValues></_>
        <_>
          <internalNodes>
            0 -1 616 -2.8704827651381493e-002</internalNodes>
          <leafValues>
            3.4510585665702820e-001 -8.5260458290576935e-002</leafValues></_>
        <_>
          <internalNodes>
            0 -1 823 -5.0290287472307682e-003</internalNodes>
          <leafValues>
            -5.8223444223403931e-001 4.9559768289327621e-002</leafValues></_>
        <_>
          <internalNodes>
            0 -1 406 -4.6249264851212502e-003</internalNodes>
          <leafValues>
            -6.3765782117843628e-001 3.7925668060779572e-002</leafValues></_>
        <_>
          <internalNodes>
            0 -1 156 -7.1847680956125259e-003</internalNodes>
          <leafValues>
            -5.0609725713729858e-001 4.9329411238431931e-002</leafValues></_>
        <_>
          <internalNodes>
            0 -1 353 -5.5645150132477283e-003</internalNodes>
          <leafValues>
            2.0351761579513550e-001 -1.2736704945564270e-001</leafValues></_>
        <_>
          <internalNodes>
            0 -1 683 -1.6589738428592682e-002</internalNodes>
          <leafValues>
            4.4935634732246399e-001 -7.3382675647735596e-002</leafValues></_>
        <_>
          <internalNodes>
            0 -1 17 -5.6185409426689148e-002</internalNodes>
          <leafValues>
            -6.2861549854278564e-001 4.9926567822694778e-002</leafValues></_>
        <_>
          <internalNodes>
            0 -1 52 -1.7093941569328308e-002</internalNodes>
          <leafValues>
            2.5514549016952515e-001 -1.1216693371534348e-001</leafValues></_>
        <_>
          <internalNodes>
            0 -1 446 4.3069213628768921e-002</internalNodes>
          <leafValues>
            -8.0584414303302765e-002 3.4598538279533386e-001</leafValues></_>
        <_>
          <internalNodes>
            0 -1 389 -6.2493188306689262e-003</internalNodes>
          <leafValues>
            2.2559496760368347e-001 -1.4636033773422241e-001</leafValues></_>
        <_>
          <internalNodes>
            0 -1 594 4.1493251919746399e-003</internalNodes>
          <leafValues>
            -9.3292273581027985e-002 3.1113749742507935e-001</leafValues></_>
        <_>
          <internalNodes>
            0 -1 643 -1.4010149985551834e-002</internalNodes>
          <leafValues>
            2.2401230037212372e-001 -1.3207712769508362e-001</leafValues></_>
        <_>
          <internalNodes>
            0 -1 706 -8.5290838032960892e-003</internalNodes>
          <leafValues>
            2.9243519902229309e-001 -9.8602615296840668e-002</leafValues></_>
        <_>
          <internalNodes>
            0 -1 393 -2.1426618099212646e-002</internalNodes>
          <leafValues>
            4.5886808633804321e-001 -5.9665817767381668e-002</leafValues></_>
        <_>
          <internalNodes>
            0 -1 55 -5.8664698153734207e-003</internalNodes>
          <leafValues>
            -4.8501238226890564e-001 6.1560060828924179e-002</leafValues></_>
        <_>
          <internalNodes>
            0 -1 439 7.7467754483222961e-002</internalNodes>
          <leafValues>
            4.9901798367500305e-002 -5.1934790611267090e-001</leafValues></_>
        <_>
          <internalNodes>
            0 -1 804 5.2905576303601265e-003</internalNodes>
          <leafValues>
            3.2784264534711838e-002 -6.5088880062103271e-001</leafValues></_>
        <_>
          <internalNodes>
            0 -1 396 -1.3058319687843323e-002</internalNodes>
          <leafValues>
            2.9557755589485168e-001 -8.8856421411037445e-002</leafValues></_>
        <_>
          <internalNodes>
            0 -1 368 -7.7718310058116913e-002</internalNodes>
          <leafValues>
            3.0143418908119202e-001 -8.4007382392883301e-002</leafValues></_>
        <_>
          <internalNodes>
            0 -1 480 1.0327575728297234e-002</internalNodes>
          <leafValues>
            -1.2959773838520050e-001 2.9451465606689453e-001</leafValues></_>
        <_>
          <internalNodes>
            0 -1 37 3.6722950637340546e-002</internalNodes>
          <leafValues>
            -6.8360336124897003e-002 3.7415701150894165e-001</leafValues></_>
        <_>
          <internalNodes>
            0 -1 85 2.1027203649282455e-002</internalNodes>
          <leafValues>
            -1.7627145349979401e-001 1.5575961768627167e-001</leafValues></_>
        <_>
          <internalNodes>
            0 -1 64 -1.0052478313446045e-001</internalNodes>
          <leafValues>
            4.3756628036499023e-001 -7.1234770119190216e-002</leafValues></_>
        <_>
          <internalNodes>
            0 -1 492 1.6048339009284973e-001</internalNodes>
          <leafValues>
            -4.4313762336969376e-002 5.8793294429779053e-001</leafValues></_>
        <_>
          <internalNodes>
            0 -1 325 -1.3694979250431061e-002</internalNodes>
          <leafValues>
            4.6393951773643494e-001 -4.9393087625503540e-002</leafValues></_>
        <_>
          <internalNodes>
            0 -1 801 -1.0348608717322350e-002</internalNodes>
          <leafValues>
            -5.6864339113235474e-001 4.3830793350934982e-002</leafValues></_>
        <_>
          <internalNodes>
            0 -1 113 4.3693828047253191e-004</internalNodes>
          <leafValues>
            -1.2412225455045700e-001 1.7724548280239105e-001</leafValues></_>
        <_>
          <internalNodes>
            0 -1 772 2.0174574106931686e-002</internalNodes>
          <leafValues>
            3.4722398966550827e-002 -6.4911144971847534e-001</leafValues></_>
        <_>
          <internalNodes>
            0 -1 608 2.7627442032098770e-003</internalNodes>
          <leafValues>
            3.3415716141462326e-002 -5.6784248352050781e-001</leafValues></_>
        <_>
          <internalNodes>
            0 -1 548 9.4243183732032776e-002</internalNodes>
          <leafValues>
            3.6081630736589432e-002 -5.4598355293273926e-001</leafValues></_>
        <_>
          <internalNodes>
            0 -1 657 1.3022410869598389e-001</internalNodes>
          <leafValues>
            2.3609474301338196e-002 -8.1051534414291382e-001</leafValues></_>
        <_>
          <internalNodes>
            0 -1 150 3.4168981015682220e-002</internalNodes>
          <leafValues>
            3.0419193208217621e-002 -5.4837167263031006e-001</leafValues></_>
        <_>
          <internalNodes>
            0 -1 508 -1.3829786330461502e-002</internalNodes>
          <leafValues>
            2.8903034329414368e-001 -8.3337344229221344e-002</leafValues></_>
        <_>
          <internalNodes>
            0 -1 567 -1.1257855594158173e-001</internalNodes>
          <leafValues>
            2.4400597810745239e-001 -9.4966351985931396e-002</leafValues></_>
        <_>
          <internalNodes>
            0 -1 522 2.2601764649152756e-002</internalNodes>
          <leafValues>
            -1.2031050771474838e-001 2.2070118784904480e-001</leafValues></_>
        <_>
          <internalNodes>
            0 -1 103 6.0193203389644623e-003</internalNodes>
          <leafValues>
            -1.1150372028350830e-001 2.2088561952114105e-001</leafValues></_></weakClassifiers></_>
    <!-- stage 5 -->
    <_>
      <maxWeakCount>100</maxWeakCount>
      <stageThreshold>-1.9608964920043945e+000</stageThreshold>
      <weakClassifiers>
        <_>
          <internalNodes>
            0 -1 635 -5.5475331842899323e-002</internalNodes>
          <leafValues>
            5.7381832599639893e-001 -6.1133551597595215e-001</leafValues></_>
        <_>
          <internalNodes>
            0 -1 114 1.5077188611030579e-002</internalNodes>
          <leafValues>
            -3.2403641939163208e-001 4.4795718789100647e-001</leafValues></_>
        <_>
          <internalNodes>
            0 -1 382 -1.7332084476947784e-001</internalNodes>
          <leafValues>
            5.7016098499298096e-001 -1.4949052035808563e-001</leafValues></_>
        <_>
          <internalNodes>
            0 -1 527 -2.2349517792463303e-002</internalNodes>
          <leafValues>
            3.2987663149833679e-001 -1.9739057123661041e-001</leafValues></_>
        <_>
          <internalNodes>
            0 -1 229 -4.3568551540374756e-002</internalNodes>
          <leafValues>
            4.7400921583175659e-001 -1.1525857448577881e-001</leafValues></_>
        <_>
          <internalNodes>
            0 -1 543 -8.5387237370014191e-002</internalNodes>
          <leafValues>
            4.8310154676437378e-001 -1.0712914913892746e-001</leafValues></_>
        <_>
          <internalNodes>
            0 -1 484 -1.0893560945987701e-002</internalNodes>
          <leafValues>
            4.2913889884948730e-001 -1.2771929800510406e-001</leafValues></_>
        <_>
          <internalNodes>
            0 -1 347 2.2162383422255516e-002</internalNodes>
          <leafValues>
            -1.0264735668897629e-001 4.1223859786987305e-001</leafValues></_>
        <_>
          <internalNodes>
            0 -1 129 1.1509815230965614e-002</internalNodes>
          <leafValues>
            7.9151436686515808e-002 -5.1365512609481812e-001</leafValues></_>
        <_>
          <internalNodes>
            0 -1 112 -1.3226773589849472e-002</internalNodes>
          <leafValues>
            -4.6660965681076050e-001 9.4403184950351715e-002</leafValues></_>
        <_>
          <internalNodes>
            0 -1 92 1.3398203253746033e-001</internalNodes>
          <leafValues>
            6.0357581824064255e-002 -7.2359943389892578e-001</leafValues></_>
        <_>
          <internalNodes>
            0 -1 771 1.6636839136481285e-003</internalNodes>
          <leafValues>
            -1.8457394838333130e-001 1.8665075302124023e-001</leafValues></_>
        <_>
          <internalNodes>
            0 -1 118 5.4986506700515747e-002</internalNodes>
          <leafValues>
            5.3810637444257736e-002 -6.9745784997940063e-001</leafValues></_>
        <_>
          <internalNodes>
            0 -1 767 1.0141556151211262e-002</internalNodes>
          <leafValues>
            -1.1535926163196564e-001 2.9906859993934631e-001</leafValues></_>
        <_>
          <internalNodes>
            0 -1 719 1.0847958922386169e-001</internalNodes>
          <leafValues>
            -7.9667761921882629e-002 4.5295405387878418e-001</leafValues></_>
        <_>
          <internalNodes>
            0 -1 268 6.9254308938980103e-002</internalNodes>
          <leafValues>
            -1.2226542830467224e-001 2.9665270447731018e-001</leafValues></_>
        <_>
          <internalNodes>
            0 -1 84 -4.2100343853235245e-002</internalNodes>
          <leafValues>
            3.2429689168930054e-001 -9.7494564950466156e-002</leafValues></_>
        <_>
          <internalNodes>
            0 -1 698 4.3827138841152191e-002</internalNodes>
          <leafValues>
            -7.0396944880485535e-002 4.2152154445648193e-001</leafValues></_>
        <_>
          <internalNodes>
            0 -1 678 -7.9618133604526520e-003</internalNodes>
          <leafValues>
            -5.3270429372787476e-001 6.0727626085281372e-002</leafValues></_>
        <_>
          <internalNodes>
            0 -1 367 -3.6274239420890808e-002</internalNodes>
          <leafValues>
            3.9936524629592896e-001 -8.2018867135047913e-002</leafValues></_>
        <_>
          <internalNodes>
            0 -1 132 -3.6207525990903378e-003</internalNodes>
          <leafValues>
            -4.9971449375152588e-001 6.5834544599056244e-002</leafValues></_>
        <_>
          <internalNodes>
            0 -1 78 -5.8745052665472031e-003</internalNodes>
          <leafValues>
            2.0759461820125580e-001 -1.3994742929935455e-001</leafValues></_>
        <_>
          <internalNodes>
            0 -1 335 5.6833028793334961e-003</internalNodes>
          <leafValues>
            -1.0299365222454071e-001 3.1138652563095093e-001</leafValues></_>
        <_>
          <internalNodes>
            0 -1 562 5.4967451840639114e-002</internalNodes>
          <leafValues>
            -1.3316051661968231e-001 1.9581510126590729e-001</leafValues></_>
        <_>
          <internalNodes>
            0 -1 50 -2.3877078294754028e-001</internalNodes>
          <leafValues>
            3.5186833143234253e-001 -8.9515976607799530e-002</leafValues></_>
        <_>
          <internalNodes>
            0 -1 104 -1.1658706702291965e-002</internalNodes>
          <leafValues>
            2.5490432977676392e-001 -1.1555980890989304e-001</leafValues></_>
        <_>
          <internalNodes>
            0 -1 278 5.0145937129855156e-003</internalNodes>
          <leafValues>
            6.6223099827766418e-002 -4.1758745908737183e-001</leafValues></_>
        <_>
          <internalNodes>
            0 -1 714 -1.2021902948617935e-002</internalNodes>
          <leafValues>
            -5.4200112819671631e-001 4.3091051280498505e-002</leafValues></_>
        <_>
          <internalNodes>
            0 -1 481 1.3384851813316345e-001</internalNodes>
          <leafValues>
            2.5700764730572701e-002 -7.6608151197433472e-001</leafValues></_>
        <_>
          <internalNodes>
            0 -1 556 1.5479752421379089e-001</internalNodes>
          <leafValues>
            -5.3280718624591827e-002 5.1743608713150024e-001</leafValues></_>
        <_>
          <internalNodes>
            0 -1 695 1.5386009588837624e-002</internalNodes>
          <leafValues>
            -4.2808044701814651e-002 5.0297588109970093e-001</leafValues></_>
        <_>
          <internalNodes>
            0 -1 44 1.7224973440170288e-001</internalNodes>
          <leafValues>
            -1.2964868545532227e-001 1.9733795523643494e-001</leafValues></_>
        <_>
          <internalNodes>
            0 -1 319 5.3552012890577316e-002</internalNodes>
          <leafValues>
            4.8952136188745499e-002 -5.9248495101928711e-001</leafValues></_>
        <_>
          <internalNodes>
            0 -1 761 1.7618156969547272e-002</internalNodes>
          <leafValues>
            -9.2624112963676453e-002 2.5510758161544800e-001</leafValues></_>
        <_>
          <internalNodes>
            0 -1 589 -3.5309664905071259e-002</internalNodes>
          <leafValues>
            4.2031341791152954e-001 -5.1969490945339203e-002</leafValues></_>
        <_>
          <internalNodes>
            0 -1 675 9.2930328100919724e-003</internalNodes>
          <leafValues>
            -1.2086719274520874e-001 2.1424143016338348e-001</leafValues></_>
        <_>
          <internalNodes>
            0 -1 262 -3.8868649862706661e-003</internalNodes>
          <leafValues>
            -6.2090682983398438e-001 3.1773131340742111e-002</leafValues></_>
        <_>
          <internalNodes>
            0 -1 36 2.5914441794157028e-002</internalNodes>
          <leafValues>
            -5.4667808115482330e-002 4.1980910301208496e-001</leafValues></_>
        <_>
          <internalNodes>
            0 -1 171 2.6020430028438568e-002</internalNodes>
          <leafValues>
            -1.0541697591543198e-001 2.0044851303100586e-001</leafValues></_>
        <_>
          <internalNodes>
            0 -1 321 -6.3407374545931816e-003</internalNodes>
          <leafValues>
            2.2295591235160828e-001 -1.1792995780706406e-001</leafValues></_>
        <_>
          <internalNodes>
            0 -1 334 -5.1677217707037926e-003</internalNodes>
          <leafValues>
            -5.3816491365432739e-001 3.8462761789560318e-002</leafValues></_>
        <_>
          <internalNodes>
            0 -1 346 -8.4124654531478882e-003</internalNodes>
          <leafValues>
            -7.1969830989837646e-001 2.3862140253186226e-002</leafValues></_>
        <_>
          <internalNodes>
            0 -1 800 -8.8197160512208939e-003</internalNodes>
          <leafValues>
            -5.3116542100906372e-001 3.2283063977956772e-002</leafValues></_>
        <_>
          <internalNodes>
            0 -1 795 2.3384200409054756e-002</internalNodes>
          <leafValues>
            2.7469146996736526e-002 -6.3458430767059326e-001</leafValues></_>
        <_>
          <internalNodes>
            0 -1 607 3.3260846976190805e-003</internalNodes>
          <leafValues>
            -1.0226461291313171e-001 2.2026740014553070e-001</leafValues></_>
        <_>
          <internalNodes>
            0 -1 710 2.2873836569488049e-003</internalNodes>
          <leafValues>
            3.8538243621587753e-002 -5.3379940986633301e-001</leafValues></_>
        <_>
          <internalNodes>
            0 -1 716 -1.7032278701663017e-002</internalNodes>
          <leafValues>
            2.5450223684310913e-001 -8.0304980278015137e-002</leafValues></_>
        <_>
          <internalNodes>
            0 -1 483 3.7073395214974880e-003</internalNodes>
          <leafValues>
            -1.0596913844347000e-001 2.5345388054847717e-001</leafValues></_>
        <_>
          <internalNodes>
            0 -1 478 7.0802189409732819e-002</internalNodes>
          <leafValues>
            -7.3215052485466003e-002 2.5112062692642212e-001</leafValues></_>
        <_>
          <internalNodes>
            0 -1 627 -4.5040566474199295e-003</internalNodes>
          <leafValues>
            2.9091736674308777e-001 -7.3829248547554016e-002</leafValues></_>
        <_>
          <internalNodes>
            0 -1 650 -4.1749500669538975e-003</internalNodes>
          <leafValues>
            1.8382187187671661e-001 -1.1864095926284790e-001</leafValues></_>
        <_>
          <internalNodes>
            0 -1 538 1.9676316529512405e-002</internalNodes>
          <leafValues>
            -5.3947038948535919e-002 3.4872695803642273e-001</leafValues></_>
        <_>
          <internalNodes>
            0 -1 598 2.4505499750375748e-002</internalNodes>
          <leafValues>
            -1.1110459268093109e-001 1.7675013840198517e-001</leafValues></_>
        <_>
          <internalNodes>
            0 -1 642 5.0232456997036934e-003</internalNodes>
          <leafValues>
            -7.7635556459426880e-002 2.7674710750579834e-001</leafValues></_>
        <_>
          <internalNodes>
            0 -1 124 7.2092656046152115e-003</internalNodes>
          <leafValues>
            3.8163613528013229e-002 -5.3656154870986938e-001</leafValues></_>
        <_>
          <internalNodes>
            0 -1 2 3.8705547922290862e-004</internalNodes>
          <leafValues>
            -1.4624150097370148e-001 1.3452073931694031e-001</leafValues></_>
        <_>
          <internalNodes>
            0 -1 696 -2.5338146835565567e-002</internalNodes>
          <leafValues>
            3.6304703354835510e-001 -5.5815316736698151e-002</leafValues></_>
        <_>
          <internalNodes>
            0 -1 147 2.9723107814788818e-002</internalNodes>
          <leafValues>
            2.4663370102643967e-002 -7.8608381748199463e-001</leafValues></_>
        <_>
          <internalNodes>
            0 -1 181 1.2690615840256214e-002</internalNodes>
          <leafValues>
            3.1972713768482208e-002 -4.9735805392265320e-001</leafValues></_>
        <_>
          <internalNodes>
            0 -1 246 -9.0589851140975952e-002</internalNodes>
          <leafValues>
            2.6692071557044983e-001 -7.6755240559577942e-002</leafValues></_>
        <_>
          <internalNodes>
            0 -1 601 3.4163692034780979e-003</internalNodes>
          <leafValues>
            -9.4232670962810516e-002 2.0130588114261627e-001</leafValues></_>
        <_>
          <internalNodes>
            0 -1 814 2.2128049749881029e-003</internalNodes>
          <leafValues>
            2.9020575806498528e-002 -6.8562233448028564e-001</leafValues></_>
        <_>
          <internalNodes>
            0 -1 740 -1.0931958677247167e-003</internalNodes>
          <leafValues>
            1.8590304255485535e-001 -1.0203883796930313e-001</leafValues></_>
        <_>
          <internalNodes>
            0 -1 798 -5.1551647484302521e-003</internalNodes>
          <leafValues>
            -6.7470979690551758e-001 2.6759594678878784e-002</leafValues></_>
        <_>
          <internalNodes>
            0 -1 185 2.4196054786443710e-002</internalNodes>
          <leafValues>
            2.2405004128813744e-002 -6.2768095731735229e-001</leafValues></_>
        <_>
          <internalNodes>
            0 -1 54 3.2341023907065392e-003</internalNodes>
          <leafValues>
            1.3789996504783630e-001 -1.2909232079982758e-001</leafValues></_>
        <_>
          <internalNodes>
            0 -1 116 2.9914700984954834e-001</internalNodes>
          <leafValues>
            -7.2955578565597534e-002 2.7455681562423706e-001</leafValues></_>
        <_>
          <internalNodes>
            0 -1 364 -9.9727194756269455e-003</internalNodes>
          <leafValues>
            3.0149310827255249e-001 -5.7043511420488358e-002</leafValues></_>
        <_>
          <internalNodes>
            0 -1 162 -6.6150026395916939e-003</internalNodes>
          <leafValues>
            -4.7744289040565491e-001 3.6662790924310684e-002</leafValues></_>
        <_>
          <internalNodes>
            0 -1 753 1.7986021935939789e-001</internalNodes>
          <leafValues>
            2.6935050264000893e-002 -5.6041115522384644e-001</leafValues></_>
        <_>
          <internalNodes>
            0 -1 120 4.9073372036218643e-002</internalNodes>
          <leafValues>
            -9.1753169894218445e-002 1.8830762803554535e-001</leafValues></_>
        <_>
          <internalNodes>
            0 -1 520 -4.4546205550432205e-002</internalNodes>
          <leafValues>
            2.8058284521102905e-001 -6.8988710641860962e-002</leafValues></_>
        <_>
          <internalNodes>
            0 -1 672 2.2576067596673965e-002</internalNodes>
          <leafValues>
            -5.4128490388393402e-002 3.5953769087791443e-001</leafValues></_>
        <_>
          <internalNodes>
            0 -1 307 5.6266561150550842e-002</internalNodes>
          <leafValues>
            -2.9556462541222572e-002 5.1843011379241943e-001</leafValues></_>
        <_>
          <internalNodes>
            0 -1 89 1.5538917854428291e-002</internalNodes>
          <leafValues>
            2.7421416714787483e-002 -6.1930805444717407e-001</leafValues></_>
        <_>
          <internalNodes>
            0 -1 504 8.1526311114430428e-003</internalNodes>
          <leafValues>
            9.1529168188571930e-002 -1.6721811890602112e-001</leafValues></_>
        <_>
          <internalNodes>
            0 -1 231 -2.6176521554589272e-002</internalNodes>
          <leafValues>
            -2.1571595966815948e-001 7.4524872004985809e-002</leafValues></_>
        <_>
          <internalNodes>
            0 -1 295 2.5498190894722939e-002</internalNodes>
          <leafValues>
            -3.6771539598703384e-002 4.6460142731666565e-001</leafValues></_>
        <_>
          <internalNodes>
            0 -1 617 -2.7546184137463570e-003</internalNodes>
          <leafValues>
            2.3868623375892639e-001 -7.3346205055713654e-002</leafValues></_>
        <_>
          <internalNodes>
            0 -1 154 1.1484200134873390e-002</internalNodes>
          <leafValues>
            8.8087327778339386e-002 -2.2285257279872894e-001</leafValues></_>
        <_>
          <internalNodes>
            0 -1 764 -6.5946984104812145e-003</internalNodes>
          <leafValues>
            1.9035552442073822e-001 -9.4829380512237549e-002</leafValues></_>
        <_>
          <internalNodes>
            0 -1 748 -1.3570852577686310e-002</internalNodes>
          <leafValues>
            -5.7044094800949097e-001 2.8593784198164940e-002</leafValues></_>
        <_>
          <internalNodes>
            0 -1 341 2.1627168171107769e-003</internalNodes>
          <leafValues>
            2.4528857320547104e-002 -5.5539435148239136e-001</leafValues></_>
        <_>
          <internalNodes>
            0 -1 294 7.6453232765197754e-001</internalNodes>
          <leafValues>
            1.6712073236703873e-002 -7.9999411106109619e-001</leafValues></_>
        <_>
          <internalNodes>
            0 -1 499 3.2710012048482895e-002</internalNodes>
          <leafValues>
            -1.2251428514719009e-001 1.4426843822002411e-001</leafValues></_>
        <_>
          <internalNodes>
            0 -1 550 4.0088586509227753e-002</internalNodes>
          <leafValues>
            -8.4161520004272461e-002 2.1347804367542267e-001</leafValues></_>
        <_>
          <internalNodes>
            0 -1 613 4.5649609528481960e-003</internalNodes>
          <leafValues>
            3.3291704952716827e-002 -4.9624651670455933e-001</leafValues></_>
        <_>
          <internalNodes>
            0 -1 731 1.7573118209838867e-002</internalNodes>
          <leafValues>
            -5.2213698625564575e-002 3.2624527812004089e-001</leafValues></_>
        <_>
          <internalNodes>
            0 -1 108 4.4035743921995163e-003</internalNodes>
          <leafValues>
            2.8457932174205780e-002 -5.6235110759735107e-001</leafValues></_>
        <_>
          <internalNodes>
            0 -1 451 -3.6385841667652130e-003</internalNodes>
          <leafValues>
            1.3256885111331940e-001 -1.0901164263486862e-001</leafValues></_>
        <_>
          <internalNodes>
            0 -1 509 2.1540902554988861e-002</internalNodes>
          <leafValues>
            -9.4820916652679443e-002 1.9871900975704193e-001</leafValues></_>
        <_>
          <internalNodes>
            0 -1 421 -5.7242000475525856e-003</internalNodes>
          <leafValues>
            -5.5162918567657471e-001 2.8565581887960434e-002</leafValues></_>
        <_>
          <internalNodes>
            0 -1 754 5.4941125214099884e-002</internalNodes>
          <leafValues>
            1.6136603429913521e-002 -7.5592172145843506e-001</leafValues></_>
        <_>
          <internalNodes>
            0 -1 33 -1.8812941014766693e-001</internalNodes>
          <leafValues>
            -6.7492049932479858e-001 1.6340442001819611e-002</leafValues></_>
        <_>
          <internalNodes>
            0 -1 549 -2.2323146462440491e-002</internalNodes>
          <leafValues>
            3.0878978967666626e-001 -5.0334885716438293e-002</leafValues></_>
        <_>
          <internalNodes>
            0 -1 122 8.1148128956556320e-003</internalNodes>
          <leafValues>
            -6.9861218333244324e-002 2.1136663854122162e-001</leafValues></_>
        <_>
          <internalNodes>
            0 -1 776 4.0647638961672783e-003</internalNodes>
          <leafValues>
            2.4346185848116875e-002 -7.0286405086517334e-001</leafValues></_>
        <_>
          <internalNodes>
            0 -1 557 -1.0087935253977776e-002</internalNodes>
          <leafValues>
            2.1732743084430695e-001 -7.2459824383258820e-002</leafValues></_>
        <_>
          <internalNodes>
            0 -1 497 -3.1481392681598663e-002</internalNodes>
          <leafValues>
            -1.6200110316276550e-001 1.1238843202590942e-001</leafValues></_>
        <_>
          <internalNodes>
            0 -1 91 4.8734731972217560e-002</internalNodes>
          <leafValues>
            -1.5694068372249603e-001 1.3734646141529083e-001</leafValues></_></weakClassifiers></_>
    <!-- stage 6 -->
    <_>
      <maxWeakCount>100</maxWeakCount>
      <stageThreshold>-2.0093009471893311e+000</stageThreshold>
      <weakClassifiers>
        <_>
          <internalNodes>
            0 -1 735 4.4366665184497833e-002</internalNodes>
          <leafValues>
            -5.8140194416046143e-001 7.2436654567718506e-001</leafValues></_>
        <_>
          <internalNodes>
            0 -1 472 2.1525867283344269e-002</internalNodes>
          <leafValues>
            -5.1378548145294189e-001 2.6829591393470764e-001</leafValues></_>
        <_>
          <internalNodes>
            0 -1 175 3.2553628087043762e-002</internalNodes>
          <leafValues>
            -1.8482643365859985e-001 4.0847155451774597e-001</leafValues></_>
        <_>
          <internalNodes>
            0 -1 571 -1.5257634222507477e-002</internalNodes>
          <leafValues>
            2.7095904946327209e-001 -2.2653931379318237e-001</leafValues></_>
        <_>
          <internalNodes>
            0 -1 733 -5.1631681621074677e-002</internalNodes>
          <leafValues>
            7.9776346683502197e-001 -5.5487394332885742e-002</leafValues></_>
        <_>
          <internalNodes>
            0 -1 811 4.8636645078659058e-003</internalNodes>
          <leafValues>
            1.0041853785514832e-001 -5.7607883214950562e-001</leafValues></_>
        <_>
          <internalNodes>
            0 -1 541 -2.4604482576251030e-002</internalNodes>
          <leafValues>
            4.0577822923660278e-001 -1.1823268234729767e-001</leafValues></_>
        <_>
          <internalNodes>
            0 -1 751 -4.0018320083618164e-002</internalNodes>
          <leafValues>
            4.9601888656616211e-001 -1.1562841385602951e-001</leafValues></_>
        <_>
          <internalNodes>
            0 -1 311 -3.8432124257087708e-001</internalNodes>
          <leafValues>
            5.1655977964401245e-001 -7.7797263860702515e-002</leafValues></_>
        <_>
          <internalNodes>
            0 -1 770 1.0087579488754272e-002</internalNodes>
          <leafValues>
            8.3183489739894867e-002 -4.2510354518890381e-001</leafValues></_>
        <_>
          <internalNodes>
            0 -1 56 3.5646241158246994e-002</internalNodes>
          <leafValues>
            4.7171127051115036e-002 -6.9391661882400513e-001</leafValues></_>
        <_>
          <internalNodes>
            0 -1 461 -9.2189535498619080e-003</internalNodes>
          <leafValues>
            -5.7927066087722778e-001 5.5925726890563965e-002</leafValues></_>
        <_>
          <internalNodes>
            0 -1 780 9.9300779402256012e-003</internalNodes>
          <leafValues>
            3.7854433059692383e-002 -8.3010107278823853e-001</leafValues></_>
        <_>
          <internalNodes>
            0 -1 531 -4.5023232698440552e-002</internalNodes>
          <leafValues>
            6.5314036607742310e-001 -5.4263141006231308e-002</leafValues></_>
        <_>
          <internalNodes>
            0 -1 661 2.7809415478259325e-003</internalNodes>
          <leafValues>
            -7.9617887735366821e-002 3.6411368846893311e-001</leafValues></_>
        <_>
          <internalNodes>
            0 -1 602 5.7087037712335587e-003</internalNodes>
          <leafValues>
            4.2994618415832520e-002 -7.1181446313858032e-001</leafValues></_>
        <_>
          <internalNodes>
            0 -1 189 -1.8998349085450172e-002</internalNodes>
          <leafValues>
            2.8312543034553528e-001 -1.1130740493535995e-001</leafValues></_>
        <_>
          <internalNodes>
            0 -1 183 -2.9453031718730927e-002</internalNodes>
          <leafValues>
            4.3500581383705139e-001 -7.9582005739212036e-002</leafValues></_>
        <_>
          <internalNodes>
            0 -1 517 -3.5714324563741684e-002</internalNodes>
          <leafValues>
            -5.2660512924194336e-001 6.3691914081573486e-002</leafValues></_>
        <_>
          <internalNodes>
            0 -1 533 -9.0164467692375183e-002</internalNodes>
          <leafValues>
            -5.0678330659866333e-001 5.4722979664802551e-002</leafValues></_>
        <_>
          <internalNodes>
            0 -1 691 3.2198697328567505e-002</internalNodes>
          <leafValues>
            -1.5255528688430786e-001 2.1604290604591370e-001</leafValues></_>
        <_>
          <internalNodes>
            0 -1 155 -7.3475898243486881e-003</internalNodes>
          <leafValues>
            -4.5090731978416443e-001 5.4995406419038773e-002</leafValues></_>
        <_>
          <internalNodes>
            0 -1 94 9.5312051475048065e-002</internalNodes>
          <leafValues>
            3.3918380737304688e-002 -6.5872561931610107e-001</leafValues></_>
        <_>
          <internalNodes>
            0 -1 164 6.2868902459740639e-003</internalNodes>
          <leafValues>
            3.7710737437009811e-002 -6.0753965377807617e-001</leafValues></_>
        <_>
          <internalNodes>
            0 -1 121 -1.1290907859802246e-001</internalNodes>
          <leafValues>
            -7.0270425081253052e-001 3.0603762716054916e-002</leafValues></_>
        <_>
          <internalNodes>
            0 -1 424 -4.6465590596199036e-002</internalNodes>
          <leafValues>
            -3.3231839537620544e-001 8.5260793566703796e-002</leafValues></_>
        <_>
          <internalNodes>
            0 -1 496 -1.0819414258003235e-001</internalNodes>
          <leafValues>
            4.8122748732566833e-001 -4.8520937561988831e-002</leafValues></_>
        <_>
          <internalNodes>
            0 -1 80 8.2417801022529602e-002</internalNodes>
          <leafValues>
            3.6295656114816666e-002 -7.0041549205780029e-001</leafValues></_>
        <_>
          <internalNodes>
            0 -1 658 4.3378092348575592e-002</internalNodes>
          <leafValues>
            -5.1333811134099960e-002 4.9604579806327820e-001</leafValues></_>
        <_>
          <internalNodes>
            0 -1 81 1.3811363279819489e-001</internalNodes>
          <leafValues>
            3.4755382686853409e-002 -7.0348078012466431e-001</leafValues></_>
        <_>
          <internalNodes>
            0 -1 784 -5.6846244260668755e-003</internalNodes>
          <leafValues>
            -4.8265266418457031e-001 4.3064594268798828e-002</leafValues></_>
        <_>
          <internalNodes>
            0 -1 539 -2.4593371152877808e-001</internalNodes>
          <leafValues>
            -7.0451593399047852e-001 2.6368476450443268e-002</leafValues></_>
        <_>
          <internalNodes>
            0 -1 789 5.3406208753585815e-003</internalNodes>
          <leafValues>
            2.6500016450881958e-002 -6.3891279697418213e-001</leafValues></_>
        <_>
          <internalNodes>
            0 -1 747 4.7923019155859947e-003</internalNodes>
          <leafValues>
            -1.2080077081918716e-001 1.6787913441658020e-001</leafValues></_>
        <_>
          <internalNodes>
            0 -1 20 1.0585110634565353e-002</internalNodes>
          <leafValues>
            3.5772342234849930e-002 -5.8977240324020386e-001</leafValues></_>
        <_>
          <internalNodes>
            0 -1 761 -2.5300860404968262e-002</internalNodes>
          <leafValues>
            4.5570418238639832e-001 -4.8687241971492767e-002</leafValues></_>
        <_>
          <internalNodes>
            0 -1 509 -5.5532712489366531e-002</internalNodes>
          <leafValues>
            2.9917666316032410e-001 -7.4741333723068237e-002</leafValues></_>
        <_>
          <internalNodes>
            0 -1 18 -3.2699136063456535e-003</internalNodes>
          <leafValues>
            1.8934503197669983e-001 -1.1226788163185120e-001</leafValues></_>
        <_>
          <internalNodes>
            0 -1 265 1.7293278127908707e-002</internalNodes>
          <leafValues>
            -6.9134898483753204e-002 3.4179314970970154e-001</leafValues></_>
        <_>
          <internalNodes>
            0 -1 29 2.6402756571769714e-002</internalNodes>
          <leafValues>
            -7.0478275418281555e-002 3.1093484163284302e-001</leafValues></_>
        <_>
          <internalNodes>
            0 -1 224 2.8450414538383484e-002</internalNodes>
          <leafValues>
            -1.1974166333675385e-001 1.9457480311393738e-001</leafValues></_>
        <_>
          <internalNodes>
            0 -1 53 1.2562072835862637e-002</internalNodes>
          <leafValues>
            -8.3494104444980621e-002 2.7475124597549438e-001</leafValues></_>
        <_>
          <internalNodes>
            0 -1 115 5.5329114198684692e-002</internalNodes>
          <leafValues>
            3.2291658222675323e-002 -6.5260422229766846e-001</leafValues></_>
        <_>
          <internalNodes>
            0 -1 16 -4.0723673999309540e-002</internalNodes>
          <leafValues>
            -5.5715459585189819e-001 3.3979110419750214e-002</leafValues></_>
        <_>
          <internalNodes>
            0 -1 279 -1.9029550254344940e-002</internalNodes>
          <leafValues>
            3.0959266424179077e-001 -7.2507932782173157e-002</leafValues></_>
        <_>
          <internalNodes>
            0 -1 387 3.3815369009971619e-002</internalNodes>
          <leafValues>
            -1.1691040545701981e-001 1.8897840380668640e-001</leafValues></_>
        <_>
          <internalNodes>
            0 -1 453 2.2427774965763092e-002</internalNodes>
          <leafValues>
            -6.4937353134155273e-002 3.7149554491043091e-001</leafValues></_>
        <_>
          <internalNodes>
            0 -1 257 1.5668259933590889e-002</internalNodes>
          <leafValues>
            5.2510060369968414e-002 -3.9585873484611511e-001</leafValues></_>
        <_>
          <internalNodes>
            0 -1 267 9.3314182013273239e-003</internalNodes>
          <leafValues>
            4.0375780314207077e-002 -4.3617913126945496e-001</leafValues></_>
        <_>
          <internalNodes>
            0 -1 380 9.2742014676332474e-003</internalNodes>
          <leafValues>
            9.6884138882160187e-002 -1.9626072049140930e-001</leafValues></_>
        <_>
          <internalNodes>
            0 -1 197 -1.5842571854591370e-002</internalNodes>
          <leafValues>
            -3.6402279138565063e-001 5.5363278836011887e-002</leafValues></_>
        <_>
          <internalNodes>
            0 -1 35 -2.2496590390801430e-003</internalNodes>
          <leafValues>
            1.5552155673503876e-001 -1.1114847660064697e-001</leafValues></_>
        <_>
          <internalNodes>
            0 -1 470 -1.9214218854904175e-001</internalNodes>
          <leafValues>
            2.4561734497547150e-001 -7.3354333639144897e-002</leafValues></_>
        <_>
          <internalNodes>
            0 -1 554 1.2042051181197166e-002</internalNodes>
          <leafValues>
            -8.5798375308513641e-002 2.5862255692481995e-001</leafValues></_>
        <_>
          <internalNodes>
            0 -1 787 5.0818910822272301e-003</internalNodes>
          <leafValues>
            -1.1264710128307343e-001 1.8084830045700073e-001</leafValues></_>
        <_>
          <internalNodes>
            0 -1 420 7.6445139944553375e-002</internalNodes>
          <leafValues>
            -1.0340440273284912e-001 1.8615351617336273e-001</leafValues></_>
        <_>
          <internalNodes>
            0 -1 711 -1.4945456758141518e-002</internalNodes>
          <leafValues>
            -7.3217189311981201e-001 2.5240363553166389e-002</leafValues></_>
        <_>
          <internalNodes>
            0 -1 417 1.1469788104295731e-001</internalNodes>
          <leafValues>
            3.5731770098209381e-002 -4.3763482570648193e-001</leafValues></_>
        <_>
          <internalNodes>
            0 -1 102 -4.1331350803375244e-002</internalNodes>
          <leafValues>
            -6.7725455760955811e-001 2.0876549184322357e-002</leafValues></_>
        <_>
          <internalNodes>
            0 -1 759 -6.3697457313537598e-002</internalNodes>
          <leafValues>
            -5.0194233655929565e-001 2.8676675632596016e-002</leafValues></_>
        <_>
          <internalNodes>
            0 -1 454 -3.2679505646228790e-002</internalNodes>
          <leafValues>
            5.5279546976089478e-001 -3.3861406147480011e-002</leafValues></_>
        <_>
          <internalNodes>
            0 -1 397 -3.0185556970536709e-003</internalNodes>
          <leafValues>
            2.4731954932212830e-001 -7.7184990048408508e-002</leafValues></_>
        <_>
          <internalNodes>
            0 -1 177 -2.0480744540691376e-002</internalNodes>
          <leafValues>
            2.7591237425804138e-001 -6.6020831465721130e-002</leafValues></_>
        <_>
          <internalNodes>
            0 -1 317 3.3862262964248657e-002</internalNodes>
          <leafValues>
            -6.8927489221096039e-002 2.5522756576538086e-001</leafValues></_>
        <_>
          <internalNodes>
            0 -1 360 -8.8570471853017807e-003</internalNodes>
          <leafValues>
            -6.0567396879196167e-001 2.8111936524510384e-002</leafValues></_>
        <_>
          <internalNodes>
            0 -1 390 -3.0993777327239513e-003</internalNodes>
          <leafValues>
            1.3937081396579742e-001 -1.1177450418472290e-001</leafValues></_>
        <_>
          <internalNodes>
            0 -1 605 -1.3053707778453827e-002</internalNodes>
          <leafValues>
            -7.4933940172195435e-001 2.1189738065004349e-002</leafValues></_>
        <_>
          <internalNodes>
            0 -1 258 5.9927878901362419e-003</internalNodes>
          <leafValues>
            2.2239523008465767e-002 -5.8804184198379517e-001</leafValues></_>
        <_>
          <internalNodes>
            0 -1 123 3.0308642890304327e-003</internalNodes>
          <leafValues>
            2.4679224938154221e-002 -5.4468244314193726e-001</leafValues></_>
        <_>
          <internalNodes>
            0 -1 779 8.5215084254741669e-003</internalNodes>
          <leafValues>
            -6.8102687597274780e-002 2.4524471163749695e-001</leafValues></_>
        <_>
          <internalNodes>
            0 -1 534 -1.0024971328675747e-002</internalNodes>
          <leafValues>
            2.5492498278617859e-001 -7.5317256152629852e-002</leafValues></_>
        <_>
          <internalNodes>
            0 -1 50 2.8498408198356628e-001</internalNodes>
          <leafValues>
            -1.4328868687152863e-001 1.5635497868061066e-001</leafValues></_>
        <_>
          <internalNodes>
            0 -1 66 -1.2144061736762524e-002</internalNodes>
          <leafValues>
            2.7671325206756592e-001 -8.8052719831466675e-002</leafValues></_>
        <_>
          <internalNodes>
            0 -1 654 1.1470983736217022e-002</internalNodes>
          <leafValues>
            -6.9386981427669525e-002 2.4788482487201691e-001</leafValues></_>
        <_>
          <internalNodes>
            0 -1 327 -1.4382693171501160e-001</internalNodes>
          <leafValues>
            3.0280208587646484e-001 -6.0519739985466003e-002</leafValues></_>
        <_>
          <internalNodes>
            0 -1 254 5.1055825315415859e-003</internalNodes>
          <leafValues>
            -9.2187143862247467e-002 1.9080857932567596e-001</leafValues></_>
        <_>
          <internalNodes>
            0 -1 332 -7.8170709311962128e-003</internalNodes>
          <leafValues>
            2.3564057052135468e-001 -6.6252477467060089e-002</leafValues></_>
        <_>
          <internalNodes>
            0 -1 633 5.0649088807404041e-003</internalNodes>
          <leafValues>
            -6.5458901226520538e-002 2.5203970074653625e-001</leafValues></_>
        <_>
          <internalNodes>
            0 -1 632 -2.5227782316505909e-003</internalNodes>
          <leafValues>
            2.4411727488040924e-001 -9.7643561661243439e-002</leafValues></_>
        <_>
          <internalNodes>
            0 -1 159 6.8352641537785530e-003</internalNodes>
          <leafValues>
            2.0034790039062500e-002 -7.7160757780075073e-001</leafValues></_>
        <_>
          <internalNodes>
            0 -1 48 2.4185009533539414e-004</internalNodes>
          <leafValues>
            -9.6628785133361816e-002 1.6354230046272278e-001</leafValues></_>
        <_>
          <internalNodes>
            0 -1 579 -3.0329784378409386e-002</internalNodes>
          <leafValues>
            -5.6379920244216919e-001 2.6720838621258736e-002</leafValues></_>
        <_>
          <internalNodes>
            0 -1 139 4.9704704433679581e-003</internalNodes>
          <leafValues>
            2.8160627931356430e-002 -4.7068077325820923e-001</leafValues></_>
        <_>
          <internalNodes>
            0 -1 487 -3.7729792296886444e-002</internalNodes>
          <leafValues>
            2.1477498114109039e-001 -7.4596777558326721e-002</leafValues></_>
        <_>
          <internalNodes>
            0 -1 350 1.9093245267868042e-002</internalNodes>
          <leafValues>
            -8.7626710534095764e-002 1.7652207612991333e-001</leafValues></_>
        <_>
          <internalNodes>
            0 -1 143 4.4954958558082581e-001</internalNodes>
          <leafValues>
            7.0079401135444641e-002 -2.9131263494491577e-001</leafValues></_>
        <_>
          <internalNodes>
            0 -1 670 7.3619596660137177e-003</internalNodes>
          <leafValues>
            -8.4028005599975586e-002 2.1018427610397339e-001</leafValues></_>
        <_>
          <internalNodes>
            0 -1 459 -1.6222636913880706e-003</internalNodes>
          <leafValues>
            2.0056292414665222e-001 -9.6767894923686981e-002</leafValues></_>
        <_>
          <internalNodes>
            0 -1 572 4.5172423124313354e-002</internalNodes>
          <leafValues>
            -1.0514897853136063e-001 1.6722859442234039e-001</leafValues></_>
        <_>
          <internalNodes>
            0 -1 734 -1.6353441402316093e-002</internalNodes>
          <leafValues>
            2.4717527627944946e-001 -7.3606699705123901e-002</leafValues></_>
        <_>
          <internalNodes>
            0 -1 575 2.6556827127933502e-002</internalNodes>
          <leafValues>
            -8.1566587090492249e-002 2.0803849399089813e-001</leafValues></_>
        <_>
          <internalNodes>
            0 -1 498 -4.7615066170692444e-002</internalNodes>
          <leafValues>
            2.2300598025321960e-001 -7.7875822782516479e-002</leafValues></_>
        <_>
          <internalNodes>
            0 -1 574 2.3835271596908569e-002</internalNodes>
          <leafValues>
            2.3376975208520889e-002 -6.6152364015579224e-001</leafValues></_>
        <_>
          <internalNodes>
            0 -1 226 1.3608166575431824e-001</internalNodes>
          <leafValues>
            1.2909125536680222e-002 -8.3415579795837402e-001</leafValues></_>
        <_>
          <internalNodes>
            0 -1 559 -6.2542133964598179e-003</internalNodes>
          <leafValues>
            -3.6948135495185852e-001 3.5489104688167572e-002</leafValues></_>
        <_>
          <internalNodes>
            0 -1 277 -2.1813618019223213e-002</internalNodes>
          <leafValues>
            4.6014159917831421e-001 -3.2023489475250244e-002</leafValues></_>
        <_>
          <internalNodes>
            0 -1 768 -6.0652187094092369e-003</internalNodes>
          <leafValues>
            -6.2025654315948486e-001 2.5077600032091141e-002</leafValues></_>
        <_>
          <internalNodes>
            0 -1 817 -2.4680690839886665e-003</internalNodes>
          <leafValues>
            1.3315553963184357e-001 -1.0686720907688141e-001</leafValues></_>
        <_>
          <internalNodes>
            0 -1 819 -1.0383233428001404e-002</internalNodes>
          <leafValues>
            -3.9024323225021362e-001 3.6657121032476425e-002</leafValues></_>
        <_>
          <internalNodes>
            0 -1 430 -1.4558293856680393e-002</internalNodes>
          <leafValues>
            3.0595546960830688e-001 -4.6124905347824097e-002</leafValues></_></weakClassifiers></_>
    <!-- stage 7 -->
    <_>
      <maxWeakCount>100</maxWeakCount>
      <stageThreshold>-1.9893888235092163e+000</stageThreshold>
      <weakClassifiers>
        <_>
          <internalNodes>
            0 -1 637 -3.6353822797536850e-002</internalNodes>
          <leafValues>
            5.7490348815917969e-001 -6.0402154922485352e-001</leafValues></_>
        <_>
          <internalNodes>
            0 -1 209 3.3910516649484634e-002</internalNodes>
          <leafValues>
            -4.7268575429916382e-001 2.9836708307266235e-001</leafValues></_>
        <_>
          <internalNodes>
            0 -1 568 -3.1085191294550896e-002</internalNodes>
          <leafValues>
            2.9725867509841919e-001 -2.5986751914024353e-001</leafValues></_>
        <_>
          <internalNodes>
            0 -1 40 -3.3315129578113556e-002</internalNodes>
          <leafValues>
            5.8938282728195190e-001 -1.0283301770687103e-001</leafValues></_>
        <_>
          <internalNodes>
            0 -1 176 2.0765572786331177e-002</internalNodes>
          <leafValues>
            -1.1350679397583008e-001 4.3589678406715393e-001</leafValues></_>
        <_>
          <internalNodes>
            0 -1 188 -2.2746603935956955e-002</internalNodes>
          <leafValues>
            5.4989874362945557e-001 -1.0095789283514023e-001</leafValues></_>
        <_>
          <internalNodes>
            0 -1 189 -1.3580635190010071e-002</internalNodes>
          <leafValues>
            3.2243436574935913e-001 -1.4773033559322357e-001</leafValues></_>
        <_>
          <internalNodes>
            0 -1 412 -7.5849056243896484e-002</internalNodes>
          <leafValues>
            6.1856883764266968e-001 -5.8312434703111649e-002</leafValues></_>
        <_>
          <internalNodes>
            0 -1 300 1.1116056144237518e-001</internalNodes>
          <leafValues>
            -6.4182795584201813e-002 8.3322328329086304e-001</leafValues></_>
        <_>
          <internalNodes>
            0 -1 794 -6.2784920446574688e-003</internalNodes>
          <leafValues>
            -5.6858378648757935e-001 6.3030011951923370e-002</leafValues></_>
        <_>
          <internalNodes>
            0 -1 486 1.5065364539623260e-001</internalNodes>
          <leafValues>
            -5.0163157284259796e-002 5.1983052492141724e-001</leafValues></_>
        <_>
          <internalNodes>
            0 -1 438 -1.3567157089710236e-001</internalNodes>
          <leafValues>
            4.4820526242256165e-001 -7.0899941027164459e-002</leafValues></_>
        <_>
          <internalNodes>
            0 -1 689 1.8747521564364433e-002</internalNodes>
          <leafValues>
            -6.7941129207611084e-002 5.3145283460617065e-001</leafValues></_>
        <_>
          <internalNodes>
            0 -1 68 5.4262429475784302e-002</internalNodes>
          <leafValues>
            -1.0494362562894821e-001 2.9918253421783447e-001</leafValues></_>
        <_>
          <internalNodes>
            0 -1 576 -1.1378649622201920e-001</internalNodes>
          <leafValues>
            4.7880446910858154e-001 -7.1374006569385529e-002</leafValues></_>
        <_>
          <internalNodes>
            0 -1 684 -2.1417509764432907e-002</internalNodes>
          <leafValues>
            3.3607813715934753e-001 -9.9478617310523987e-002</leafValues></_>
        <_>
          <internalNodes>
            0 -1 354 1.1753311753273010e-001</internalNodes>
          <leafValues>
            -3.9848849177360535e-002 6.0107874870300293e-001</leafValues></_>
        <_>
          <internalNodes>
            0 -1 260 -7.7472939155995846e-003</internalNodes>
          <leafValues>
            -6.9318675994873047e-001 4.5742511749267578e-002</leafValues></_>
        <_>
          <internalNodes>
            0 -1 558 -2.9795799404382706e-002</internalNodes>
          <leafValues>
            4.2947125434875488e-001 -7.1105487644672394e-002</leafValues></_>
        <_>
          <internalNodes>
            0 -1 151 -1.8132720142602921e-002</internalNodes>
          <leafValues>
            -2.5635355710983276e-001 1.0910239070653915e-001</leafValues></_>
        <_>
          <internalNodes>
            0 -1 76 8.1834137439727783e-002</internalNodes>
          <leafValues>
            1.1094906181097031e-001 -2.0392002165317535e-001</leafValues></_>
        <_>
          <internalNodes>
            0 -1 111 1.1528218165040016e-002</internalNodes>
          <leafValues>
            5.3910095244646072e-002 -4.5931258797645569e-001</leafValues></_>
        <_>
          <internalNodes>
            0 -1 514 2.8621554374694824e-002</internalNodes>
          <leafValues>
            -1.4410360157489777e-001 1.6356547176837921e-001</leafValues></_>
        <_>
          <internalNodes>
            0 -1 618 1.7922203987836838e-002</internalNodes>
          <leafValues>
            -4.8119675368070602e-002 4.8948758840560913e-001</leafValues></_>
        <_>
          <internalNodes>
            0 -1 773 2.0611037034541368e-003</internalNodes>
          <leafValues>
            -1.4414174854755402e-001 1.7143261432647705e-001</leafValues></_>
        <_>
          <internalNodes>
            0 -1 310 -1.6526800394058228e-001</internalNodes>
          <leafValues>
            3.0243551731109619e-001 -7.7524982392787933e-002</leafValues></_>
        <_>
          <internalNodes>
            0 -1 477 -6.2977060675621033e-002</internalNodes>
          <leafValues>
            -5.2628058195114136e-001 4.2716968804597855e-002</leafValues></_>
        <_>
          <internalNodes>
            0 -1 485 -3.6092847585678101e-001</internalNodes>
          <leafValues>
            2.8676527738571167e-001 -7.3810704052448273e-002</leafValues></_>
        <_>
          <internalNodes>
            0 -1 739 -4.9367453902959824e-003</internalNodes>
          <leafValues>
            3.0023676156997681e-001 -6.8351514637470245e-002</leafValues></_>
        <_>
          <internalNodes>
            0 -1 140 -6.7799808457493782e-003</internalNodes>
          <leafValues>
            -4.4271990656852722e-001 4.8298392444849014e-002</leafValues></_>
        <_>
          <internalNodes>
            0 -1 471 1.3567670248448849e-002</internalNodes>
          <leafValues>
            -8.0314539372920990e-002 2.7058762311935425e-001</leafValues></_>
        <_>
          <internalNodes>
            0 -1 205 8.7900757789611816e-003</internalNodes>
          <leafValues>
            5.6896943598985672e-002 -3.9116287231445313e-001</leafValues></_>
        <_>
          <internalNodes>
            0 -1 671 1.7109028995037079e-002</internalNodes>
          <leafValues>
            -8.4821760654449463e-002 2.4214385449886322e-001</leafValues></_>
        <_>
          <internalNodes>
            0 -1 252 1.0548608750104904e-001</internalNodes>
          <leafValues>
            2.7761165052652359e-002 -7.8180325031280518e-001</leafValues></_>
        <_>
          <internalNodes>
            0 -1 359 -1.2998120859265327e-002</internalNodes>
          <leafValues>
            2.5417125225067139e-001 -7.5519964098930359e-002</leafValues></_>
        <_>
          <internalNodes>
            0 -1 375 -1.9761435687541962e-002</internalNodes>
          <leafValues>
            2.2261811792850494e-001 -9.8095886409282684e-002</leafValues></_>
        <_>
          <internalNodes>
            0 -1 292 -3.2749888487160206e-003</internalNodes>
          <leafValues>
            3.3720037341117859e-001 -7.0348791778087616e-002</leafValues></_>
        <_>
          <internalNodes>
            0 -1 414 5.2116528153419495e-002</internalNodes>
          <leafValues>
            -1.0506465286016464e-001 1.8207317590713501e-001</leafValues></_>
        <_>
          <internalNodes>
            0 -1 234 1.1137709021568298e-001</internalNodes>
          <leafValues>
            3.5336300730705261e-002 -6.6138511896133423e-001</leafValues></_>
        <_>
          <internalNodes>
            0 -1 117 -4.1943341493606567e-003</internalNodes>
          <leafValues>
            -3.3382201194763184e-001 5.0874624401330948e-002</leafValues></_>
        <_>
          <internalNodes>
            0 -1 291 1.6809567809104919e-001</internalNodes>
          <leafValues>
            2.4236176162958145e-002 -6.8939536809921265e-001</leafValues></_>
        <_>
          <internalNodes>
            0 -1 338 -3.3826553262770176e-003</internalNodes>
          <leafValues>
            -6.5884113311767578e-001 2.2103810682892799e-002</leafValues></_>
        <_>
          <internalNodes>
            0 -1 288 8.5055597126483917e-002</internalNodes>
          <leafValues>
            2.1747881546616554e-002 -6.3618826866149902e-001</leafValues></_>
        <_>
          <internalNodes>
            0 -1 45 -5.7586412876844406e-003</internalNodes>
          <leafValues>
            2.1060591936111450e-001 -9.1170653700828552e-002</leafValues></_>
        <_>
          <internalNodes>
            0 -1 77 -3.6941014230251312e-002</internalNodes>
          <leafValues>
            -6.9123482704162598e-001 2.8818784281611443e-002</leafValues></_>
        <_>
          <internalNodes>
            0 -1 766 1.1866136454045773e-002</internalNodes>
          <leafValues>
            -8.6081407964229584e-002 2.1623598039150238e-001</leafValues></_>
        <_>
          <internalNodes>
            0 -1 247 -1.8231317400932312e-002</internalNodes>
          <leafValues>
            3.1362554430961609e-001 -6.1600871384143829e-002</leafValues></_>
        <_>
          <internalNodes>
            0 -1 324 -7.3889703489840031e-003</internalNodes>
          <leafValues>
            3.0826017260551453e-001 -5.8532096445560455e-002</leafValues></_>
        <_>
          <internalNodes>
            0 -1 732 5.1691643893718719e-003</internalNodes>
          <leafValues>
            2.9993735253810883e-002 -6.2977868318557739e-001</leafValues></_>
        <_>
          <internalNodes>
            0 -1 667 -1.2862924486398697e-002</internalNodes>
          <leafValues>
            -4.3736469745635986e-001 3.2921057194471359e-002</leafValues></_>
        <_>
          <internalNodes>
            0 -1 703 -2.2983271628618240e-002</internalNodes>
          <leafValues>
            2.6511108875274658e-001 -6.6909156739711761e-002</leafValues></_>
        <_>
          <internalNodes>
            0 -1 674 3.9090830832719803e-003</internalNodes>
          <leafValues>
            -1.0127128660678864e-001 2.0073010027408600e-001</leafValues></_>
        <_>
          <internalNodes>
            0 -1 744 -9.0994630008935928e-003</internalNodes>
          <leafValues>
            1.3385884463787079e-001 -1.3561423122882843e-001</leafValues></_>
        <_>
          <internalNodes>
            0 -1 796 -5.6763380765914917e-002</internalNodes>
          <leafValues>
            5.6630617380142212e-001 -3.2809354364871979e-002</leafValues></_>
        <_>
          <internalNodes>
            0 -1 259 4.8070675693452358e-003</internalNodes>
          <leafValues>
            4.4194158166646957e-002 -4.0204837918281555e-001</leafValues></_>
        <_>
          <internalNodes>
            0 -1 340 -1.0450733825564384e-002</internalNodes>
          <leafValues>
            2.3827658593654633e-001 -7.6380252838134766e-002</leafValues></_>
        <_>
          <internalNodes>
            0 -1 256 -1.7678029835224152e-002</internalNodes>
          <leafValues>
            2.1672835946083069e-001 -7.9985588788986206e-002</leafValues></_>
        <_>
          <internalNodes>
            0 -1 67 2.7773942798376083e-002</internalNodes>
          <leafValues>
            -4.5684009790420532e-002 3.9579004049301147e-001</leafValues></_>
        <_>
          <internalNodes>
            0 -1 474 8.7843492627143860e-002</internalNodes>
          <leafValues>
            3.4366942942142487e-002 -5.3730368614196777e-001</leafValues></_>
        <_>
          <internalNodes>
            0 -1 166 1.9426442682743073e-002</internalNodes>
          <leafValues>
            -9.9758401513099670e-002 2.0479789376258850e-001</leafValues></_>
        <_>
          <internalNodes>
            0 -1 443 -1.6408386826515198e-001</internalNodes>
          <leafValues>
            3.7857857346534729e-001 -5.3978055715560913e-002</leafValues></_>
        <_>
          <internalNodes>
            0 -1 361 -5.6890182197093964e-002</internalNodes>
          <leafValues>
            3.2869496941566467e-001 -4.6734869480133057e-002</leafValues></_>
        <_>
          <internalNodes>
            0 -1 73 -5.0815895199775696e-002</internalNodes>
          <leafValues>
            -4.7677189111709595e-001 3.4135986119508743e-002</leafValues></_>
        <_>
          <internalNodes>
            0 -1 285 -3.7362597882747650e-002</internalNodes>
          <leafValues>
            4.8422592878341675e-001 -4.0414333343505859e-002</leafValues></_>
        <_>
          <internalNodes>
            0 -1 144 -2.7112174779176712e-002</internalNodes>
          <leafValues>
            -6.0966557264328003e-001 2.7988156303763390e-002</leafValues></_>
        <_>
          <internalNodes>
            0 -1 49 -4.5164238661527634e-002</internalNodes>
          <leafValues>
            -8.6822801828384399e-001 1.2851182371377945e-002</leafValues></_>
        <_>
          <internalNodes>
            0 -1 680 5.1760412752628326e-003</internalNodes>
          <leafValues>
            2.9443990439176559e-002 -4.3073326349258423e-001</leafValues></_>
        <_>
          <internalNodes>
            0 -1 478 -8.4172144532203674e-002</internalNodes>
          <leafValues>
            2.9436424374580383e-001 -4.9916967749595642e-002</leafValues></_>
        <_>
          <internalNodes>
            0 -1 458 1.9042786210775375e-002</internalNodes>
          <leafValues>
            -3.4412886947393417e-002 4.4832718372344971e-001</leafValues></_>
        <_>
          <internalNodes>
            0 -1 478 5.7432703673839569e-002</internalNodes>
          <leafValues>
            -7.7486172318458557e-002 1.8293291330337524e-001</leafValues></_>
        <_>
          <internalNodes>
            0 -1 86 1.7984922975301743e-002</internalNodes>
          <leafValues>
            -9.2546351253986359e-002 1.8607094883918762e-001</leafValues></_>
        <_>
          <internalNodes>
            0 -1 572 4.1388571262359619e-002</internalNodes>
          <leafValues>
            -1.0863362997770309e-001 1.5282210707664490e-001</leafValues></_>
        <_>
          <internalNodes>
            0 -1 43 9.1915345191955566e-001</internalNodes>
          <leafValues>
            2.8560444712638855e-002 -6.0594308376312256e-001</leafValues></_>
        <_>
          <internalNodes>
            0 -1 532 -1.9133273512125015e-002</internalNodes>
          <leafValues>
            -8.5332053899765015e-001 1.2371141463518143e-002</leafValues></_>
        <_>
          <internalNodes>
            0 -1 809 9.7082778811454773e-003</internalNodes>
          <leafValues>
            1.2650677002966404e-002 -8.1339740753173828e-001</leafValues></_>
        <_>
          <internalNodes>
            0 -1 676 -8.9433819055557251e-002</internalNodes>
          <leafValues>
            -5.3538358211517334e-001 2.1225364878773689e-002</leafValues></_>
        <_>
          <internalNodes>
            0 -1 416 -6.7972466349601746e-002</internalNodes>
          <leafValues>
            2.2748632729053497e-001 -6.3480392098426819e-002</leafValues></_>
        <_>
          <internalNodes>
            0 -1 660 -3.7654261104762554e-003</internalNodes>
          <leafValues>
            2.2040548920631409e-001 -6.8912781774997711e-002</leafValues></_>
        <_>
          <internalNodes>
            0 -1 425 2.3539884388446808e-001</internalNodes>
          <leafValues>
            1.8962537869811058e-002 -7.3649096488952637e-001</leafValues></_>
        <_>
          <internalNodes>
            0 -1 682 8.4126703441143036e-003</internalNodes>
          <leafValues>
            1.6248503699898720e-002 -6.6107767820358276e-001</leafValues></_>
        <_>
          <internalNodes>
            0 -1 0 5.9240809641778469e-003</internalNodes>
          <leafValues>
            1.2709932401776314e-002 -7.9893755912780762e-001</leafValues></_>
        <_>
          <internalNodes>
            0 -1 30 5.7852733880281448e-003</internalNodes>
          <leafValues>
            1.3032922521233559e-002 -7.1413958072662354e-001</leafValues></_>
        <_>
          <internalNodes>
            0 -1 326 -6.7011862993240356e-002</internalNodes>
          <leafValues>
            -9.6618568897247314e-001 1.0199193842709064e-002</leafValues></_>
        <_>
          <internalNodes>
            0 -1 802 6.2955496832728386e-003</internalNodes>
          <leafValues>
            1.1003237217664719e-002 -7.9627370834350586e-001</leafValues></_>
        <_>
          <internalNodes>
            0 -1 308 2.2338733077049255e-001</internalNodes>
          <leafValues>
            1.8742179498076439e-002 -5.6901288032531738e-001</leafValues></_>
        <_>
          <internalNodes>
            0 -1 244 6.9172801449894905e-003</internalNodes>
          <leafValues>
            1.4789959415793419e-002 -7.2332131862640381e-001</leafValues></_>
        <_>
          <internalNodes>
            0 -1 555 -6.9728232920169830e-002</internalNodes>
          <leafValues>
            -7.3287606239318848e-001 1.2337258085608482e-002</leafValues></_>
        <_>
          <internalNodes>
            0 -1 491 1.0706198960542679e-001</internalNodes>
          <leafValues>
            1.7545098438858986e-002 -5.9982377290725708e-001</leafValues></_>
        <_>
          <internalNodes>
            0 -1 186 1.6913741827011108e-002</internalNodes>
          <leafValues>
            2.2844947874546051e-002 -4.8921287059783936e-001</leafValues></_>
        <_>
          <internalNodes>
            0 -1 460 -8.7020844221115112e-003</internalNodes>
          <leafValues>
            -7.5956517457962036e-001 1.3844862580299377e-002</leafValues></_>
        <_>
          <internalNodes>
            0 -1 296 7.9813569784164429e-002</internalNodes>
          <leafValues>
            1.8443970009684563e-002 -6.0584050416946411e-001</leafValues></_>
        <_>
          <internalNodes>
            0 -1 263 2.1565157920122147e-002</internalNodes>
          <leafValues>
            -4.1093282401561737e-002 3.2994875311851501e-001</leafValues></_>
        <_>
          <internalNodes>
            0 -1 507 -1.1819498240947723e-001</internalNodes>
          <leafValues>
            7.6440620422363281e-001 -1.5310727991163731e-002</leafValues></_>
        <_>
          <internalNodes>
            0 -1 13 -1.1644796468317509e-002</internalNodes>
          <leafValues>
            1.5059669315814972e-001 -8.5400067269802094e-002</leafValues></_>
        <_>
          <internalNodes>
            0 -1 136 4.8412360250949860e-002</internalNodes>
          <leafValues>
            1.5801191329956055e-002 -8.1906789541244507e-001</leafValues></_>
        <_>
          <internalNodes>
            0 -1 447 -9.1522522270679474e-003</internalNodes>
          <leafValues>
            1.2237263470888138e-001 -1.0453698039054871e-001</leafValues></_>
        <_>
          <internalNodes>
            0 -1 282 1.0599581897258759e-001</internalNodes>
          <leafValues>
            -3.7372149527072906e-002 3.8735589385032654e-001</leafValues></_>
        <_>
          <internalNodes>
            0 -1 769 3.6802445538341999e-003</internalNodes>
          <leafValues>
            -7.8164376318454742e-002 1.5969018638134003e-001</leafValues></_>
        <_>
          <internalNodes>
            0 -1 51 4.8344388604164124e-002</internalNodes>
          <leafValues>
            2.6674685999751091e-002 -4.7453081607818604e-001</leafValues></_>
        <_>
          <internalNodes>
            0 -1 535 -1.2036672234535217e-001</internalNodes>
          <leafValues>
            2.0954853296279907e-001 -6.7930959165096283e-002</leafValues></_></weakClassifiers></_>
    <!-- stage 8 -->
    <_>
      <maxWeakCount>100</maxWeakCount>
      <stageThreshold>-2.0882713794708252e+000</stageThreshold>
      <weakClassifiers>
        <_>
          <internalNodes>
            0 -1 588 1.1892063915729523e-001</internalNodes>
          <leafValues>
            -6.1742293834686279e-001 4.5307034254074097e-001</leafValues></_>
        <_>
          <internalNodes>
            0 -1 713 -2.0387375727295876e-002</internalNodes>
          <leafValues>
            2.7144163846969604e-001 -4.6928820013999939e-001</leafValues></_>
        <_>
          <internalNodes>
            0 -1 529 1.2590212747454643e-002</internalNodes>
          <leafValues>
            -2.0108436048030853e-001 3.8105344772338867e-001</leafValues></_>
        <_>
          <internalNodes>
            0 -1 163 2.0354434847831726e-002</internalNodes>
          <leafValues>
            -1.6400215029716492e-001 2.7574071288108826e-001</leafValues></_>
        <_>
          <internalNodes>
