<?xml version="1.0"?>
<opencv_storage>
<cascade>
  <stageType>BOOST</stageType>
  <featureType>LBP</featureType>
  <height>16</height>
  <width>64</width>
  <stageParams>
    <boostType>GAB</boostType>
    <minHitRate>9.9849998950958252e-01</minHitRate>
    <maxFalseAlarm>5.0000000000000000e-01</maxFalseAlarm>
    <weightTrimRate>9.4999999999999996e-01</weightTrimRate>
    <maxDepth>1</maxDepth>
    <maxWeakCount>25</maxWeakCount></stageParams>
  <featureParams>
    <maxCatCount>256</maxCatCount>
    <featSize>1</featSize></featureParams>
  <stageNum>15</stageNum>
  <stages>
    <!-- stage 0 -->
    <_>
      <maxWeakCount>4</maxWeakCount>
      <stageThreshold>-1.8557647466659546e+00</stageThreshold>
      <weakClassifiers>
        <_>
          <internalNodes>
            0 -1 59 -513 -234882565 -578037494 -3147793 -135923717
            1902232273 -3408950 -2049</internalNodes>
          <leafValues>
            -8.0374807119369507e-01 6.7052537202835083e-01</leafValues></_>
        <_>
          <internalNodes>
            0 -1 83 352326928 1058083280 1502920181 -6613540 -1719104003
            -1141127011 -1142412372 -1157101560</internalNodes>
          <leafValues>
            -8.0566996335983276e-01 6.1248415708541870e-01</leafValues></_>
        <_>
          <internalNodes>
            0 -1 40 -1048696 -3343122 -159454716 -170930225 1137308356
            97838295 2002236352 1912340395</internalNodes>
          <leafValues>
            -8.0429738759994507e-01 5.2559518814086914e-01</leafValues></_>
        <_>
          <internalNodes>
            0 -1 16 286265556 1362112720 487599583 454373729 293615864
            -34602808 988286687 193462272</internalNodes>
          <leafValues>
            -7.3533892631530762e-01 5.5795061588287354e-01</leafValues></_></weakClassifiers></_>
    <!-- stage 1 -->
    <_>
      <maxWeakCount>5</maxWeakCount>
      <stageThreshold>-2.2765452861785889e+00</stageThreshold>
      <weakClassifiers>
        <_>
          <internalNodes>
            0 -1 56 -134742049 -235408417 -137374322 -2105633 -738855025
            1909977555 -1048854 -134217985</internalNodes>
          <leafValues>
            -8.1266677379608154e-01 5.0762194395065308e-01</leafValues></_>
        <_>
          <internalNodes>
            0 -1 88 16782289 -552593967 959583733 -36627183 562044668
            -74448752 430226623 463999080</internalNodes>
          <leafValues>
            -7.4698686599731445e-01 5.5809932947158813e-01</leafValues></_>
        <_>
          <internalNodes>
            0 -1 115 -532022 -139984982 -1878015998 -208931986
            -258213434 1342357576 -796667454 -676603985</internalNodes>
          <leafValues>
            -6.5450078248977661e-01 6.2039774656295776e-01</leafValues></_>
        <_>
          <internalNodes>
            0 -1 24 2224 -50325008 152047029 1498419360 -1476388628
            -71251800 135020541 -1459617792</internalNodes>
          <leafValues>
            -6.6697883605957031e-01 6.0400378704071045e-01</leafValues></_>
        <_>
          <internalNodes>
            0 -1 8 -1057906 -1500582206 -842801086 1659566766 -606638015
            1613058117 -647765376 -243795969</internalNodes>
          <leafValues>
            -6.7031073570251465e-01 6.2470674514770508e-01</leafValues></_></weakClassifiers></_>
    <!-- stage 2 -->
    <_>
      <maxWeakCount>6</maxWeakCount>
      <stageThreshold>-1.9298083782196045e+00</stageThreshold>
      <weakClassifiers>
        <_>
          <internalNodes>
            0 -1 57 -262145 -235405825 -67108978 -2322 -134219777
            -235669505 -67125366 -134220549</internalNodes>
          <leafValues>
            -7.9826927185058594e-01 4.3471810221672058e-01</leafValues></_>
        <_>
          <internalNodes>
            0 -1 35 8391352 -47170064 286592509 -104842858 -1426062596
            -51343960 -1206374721 -1472200688</internalNodes>
          <leafValues>
            -7.3537963628768921e-01 4.1982886195182800e-01</leafValues></_>
        <_>
          <internalNodes>
            0 -1 123 -67371134 -486803520 -78651776 -488112402
            -1279002879 5460821 1444107521 -797706281</internalNodes>
          <leafValues>
            -6.9243812561035156e-01 5.1462066173553467e-01</leafValues></_>
        <_>
          <internalNodes>
            0 -1 19 -167848498 -172378625 -5067862 -553652481 -134351363
            -2063990785 -134863446 838844390</internalNodes>
          <leafValues>
            -7.2991979122161865e-01 4.4163367152214050e-01</leafValues></_>
        <_>
          <internalNodes>
            0 -1 85 363074580 1064123869 -1614955011 -12615715 469614588
            -68306183 -7028744 -1197470676</internalNodes>
          <leafValues>
            -6.5309464931488037e-01 5.0137048959732056e-01</leafValues></_>
        <_>
          <internalNodes>
            0 -1 43 -167772186 -461067570 -605852254 -422646434
            -943200447 2322955 -507022844 -436207617</internalNodes>
          <leafValues>
            -6.3186907768249512e-01 5.2482801675796509e-01</leafValues></_></weakClassifiers></_>
    <!-- stage 3 -->
    <_>
      <maxWeakCount>6</maxWeakCount>
      <stageThreshold>-1.6591608524322510e+00</stageThreshold>
      <weakClassifiers>
        <_>
          <internalNodes>
            0 -1 62 -1 -773851137 -540016753 -168820737 -738199553
            -235407369 -1574944 -2057</internalNodes>
          <leafValues>
            -7.5136762857437134e-01 4.2704480886459351e-01</leafValues></_>
        <_>
          <internalNodes>
            0 -1 89 -33554482 -273682834 -523321280 -684760341
            -201590826 8909335 -1015819777 -202383881</internalNodes>
          <leafValues>
            -6.0944801568984985e-01 4.9135801196098328e-01</leafValues></_>
        <_>
          <internalNodes>
            0 -1 34 -1602222915 -136285709 -251482193 -67826559
            -255292423 -36131331 -1898299457 -1946156896</internalNodes>
          <leafValues>
            -5.6996327638626099e-01 5.2931648492813110e-01</leafValues></_>
        <_>
          <internalNodes>
            0 -1 125 -86 -1496319030 -307760640 -693701682 -1275071200
            540061799 1575479552 -134217765</internalNodes>
          <leafValues>
            -5.7207441329956055e-01 5.2914345264434814e-01</leafValues></_>
        <_>
          <internalNodes>
            0 -1 51 -268457282 -1113539346 -1618961748 -1315180822
            1463156719 348712702 2013245951 1937767295</internalNodes>
          <leafValues>
            -6.7348819971084595e-01 4.3577253818511963e-01</leafValues></_>
        <_>
          <internalNodes>
            0 -1 81 412094748 1073577725 -1622573315 1073549565
            1025022428 -101046241 -1074201602 -1364711192</internalNodes>
          <leafValues>
            -6.4842098951339722e-01 4.1790086030960083e-01</leafValues></_></weakClassifiers></_>
    <!-- stage 4 -->
    <_>
      <maxWeakCount>8</maxWeakCount>
      <stageThreshold>-2.0059437751770020e+00</stageThreshold>
      <weakClassifiers>
        <_>
          <internalNodes>
            0 -1 63 -67110913 -201854217 -447746065 -808457233
            -143395853 -235538441 -56 -2097153</internalNodes>
          <leafValues>
            -7.3043477535247803e-01 3.8616353273391724e-01</leafValues></_>
        <_>
          <internalNodes>
            0 -1 97 268435792 -7339952 2076303285 -1118486604
            -2072724292 -4917264 221293500 797974784</internalNodes>
          <leafValues>
            -7.4863654375076294e-01 3.3188772201538086e-01</leafValues></_>
        <_>
          <internalNodes>
            0 -1 6 -5138 -1024465426 -1035546898 -1058018786 -679477433
            1146217939 -134753818 -227017897</internalNodes>
          <leafValues>
            -5.8888626098632813e-01 4.8024308681488037e-01</leafValues></_>
        <_>
          <internalNodes>
            0 -1 4 290501113 1909543904 -202375177 -2278064 561752042
            -570963032 999092207 233767050</internalNodes>
          <leafValues>
            -5.8781886100769043e-01 4.8762163519859314e-01</leafValues></_>
        <_>
          <internalNodes>
            0 -1 108 -2099222 -135338056 -279086048 901746554 -172163124
            538239922 925925280 2010642395</internalNodes>
          <leafValues>
            -6.6983526945114136e-01 4.1745030879974365e-01</leafValues></_>
        <_>
          <internalNodes>
            0 -1 45 -236586001 1364851127 1571681962 -2515298 -248121924
            1960967417 -34616930 -167911681</internalNodes>
          <leafValues>
            -5.5322623252868652e-01 4.6372789144515991e-01</leafValues></_>
        <_>
          <internalNodes>
            0 -1 99 -18 1674049250 -693840896 1910765229 -137497716
            13329665 878671193 1438111719</internalNodes>
          <leafValues>
            -6.8673908710479736e-01 3.5863718390464783e-01</leafValues></_>
        <_>
          <internalNodes>
            0 -1 80 352324816 2145392092 -1753154049 -2292248
            -1362223112 -1121117699 688430060 -1348985684</internalNodes>
          <leafValues>
            -5.6783300638198853e-01 4.2697137594223022e-01</leafValues></_></weakClassifiers></_>
    <!-- stage 5 -->
    <_>
      <maxWeakCount>8</maxWeakCount>
      <stageThreshold>-1.6383054256439209e+00</stageThreshold>
      <weakClassifiers>
        <_>
          <internalNodes>
            0 -1 67 -134219777 -251661325 -309342259 -3145745 -201853993
            -235416589 -2097202 -2049</internalNodes>
          <leafValues>
            -7.2553932666778564e-01 2.9609376192092896e-01</leafValues></_>
        <_>
          <internalNodes>
            0 -1 96 -66 -34734880 117470924 -539164722 1740417966
            807415736 119344526 2145386495</internalNodes>
          <leafValues>
            -6.8226647377014160e-01 3.3983355760574341e-01</leafValues></_>
        <_>
          <internalNodes>
            0 -1 82 352329469 2146713073 1073690621 1006312429 754736895
            -41615624 209035263 -1612699488</internalNodes>
          <leafValues>
            -4.9389359354972839e-01 5.3269237279891968e-01</leafValues></_>
        <_>
          <internalNodes>
            0 -1 46 -3145746 -806376210 1756268258 -704909682 1995929028
            30488278 -169349186 1912588287</internalNodes>
          <leafValues>
            -6.4547556638717651e-01 3.8756757974624634e-01</leafValues></_>
        <_>
          <internalNodes>
            0 -1 27 1612742837 -168509515 -1531663363 -48987283
            -318980616 -1785865 -155959811 -1446766424</internalNodes>
          <leafValues>
            -4.4861391186714172e-01 5.3504359722137451e-01</leafValues></_>
        <_>
          <internalNodes>
            0 -1 41 -33558898 -993012561 -201292798 1810818478
            -110898357 1149354626 -252192512 -707267878</internalNodes>
          <leafValues>
            -5.4923200607299805e-01 4.2610275745391846e-01</leafValues></_>
        <_>
          <internalNodes>
            0 -1 54 -8913077 -236199939 -1054872 -302002197 -201529351
            1930453260 -53215266 -236978434</internalNodes>
          <leafValues>
            -4.6544477343559265e-01 4.7707420587539673e-01</leafValues></_>
        <_>
          <internalNodes>
            0 -1 112 -608249094 -779319646 -1659101058 -607211906
            -145979926 868222084 -10188807 -707573793</internalNodes>
          <leafValues>
            -5.6595468521118164e-01 4.1316789388656616e-01</leafValues></_></weakClassifiers></_>
    <!-- stage 6 -->
    <_>
      <maxWeakCount>8</maxWeakCount>
      <stageThreshold>-1.9564625024795532e+00</stageThreshold>
      <weakClassifiers>
        <_>
          <internalNodes>
            0 -1 26 -33597675 -8331 2113894271 -8424449 -89129477
            -286326785 -520094785 -521142337</internalNodes>
          <leafValues>
            -7.3893302679061890e-01 2.7919912338256836e-01</leafValues></_>
        <_>
          <internalNodes>
            0 -1 14 269498879 1962950608 2140684287 -2778187 1572354814
            -3060488 465189631 -1081606072</internalNodes>
          <leafValues>
            -5.6680327653884888e-01 3.9908951520919800e-01</leafValues></_>
        <_>
          <internalNodes>
            0 -1 50 -1074 -490013777 -663778966 -531651729 -541591721
            1081500405 -254299305 -973096961</internalNodes>
          <leafValues>
            -5.1911234855651855e-01 4.4489717483520508e-01</leafValues></_>
        <_>
          <internalNodes>
            0 -1 105 -17825798 -38930080 1373390600 498002794 -407373410
            1967454168 119295951 2031091711</internalNodes>
          <leafValues>
            -6.4406156539916992e-01 3.6622676253318787e-01</leafValues></_>
        <_>
          <internalNodes>
            0 -1 90 486546704 -1112399876 -1616314443 -1073775617
            -1145462790 -34509137 -1093353795 -1113322488</internalNodes>
          <leafValues>
            -5.2583014965057373e-01 4.3542933464050293e-01</leafValues></_>
        <_>
          <internalNodes>
            0 -1 3 -454056402 -152048385 -273678808 -278008082
            -1057226755 1580202495 -1265 1347551207</internalNodes>
          <leafValues>
            -6.8863552808761597e-01 3.2389098405838013e-01</leafValues></_>
        <_>
          <internalNodes>
            0 -1 77 -210764818 -242549089 -942902836 -540550198
            -205593613 1961686224 -1075978244 2135351268</internalNodes>
          <leafValues>
            -6.1969602108001709e-01 3.3784276247024536e-01</leafValues></_>
        <_>
          <internalNodes>
            0 -1 104 311694647 928565758 1989161919 -34260588 1033701855
            -1660658864 -1347699011 416287760</internalNodes>
          <leafValues>
            -5.5452758073806763e-01 3.7506169080734253e-01</leafValues></_></weakClassifiers></_>
    <!-- stage 7 -->
    <_>
      <maxWeakCount>9</maxWeakCount>
      <stageThreshold>-1.6569547653198242e+00</stageThreshold>
      <weakClassifiers>
        <_>
          <internalNodes>
            0 -1 64 -1 -738200065 -5244977 -1310721 -33556481 1912567799
            -1056816 -2057</internalNodes>
          <leafValues>
            -7.3071366548538208e-01 2.1360255777835846e-01</leafValues></_>
        <_>
          <internalNodes>
            0 -1 107 1360395199 -10642113 660318687 -1057281 1464314542
            88474112 -206836737 1600125951</internalNodes>
          <leafValues>
            -5.4948478937149048e-01 3.7531265616416931e-01</leafValues></_>
        <_>
          <internalNodes>
            0 -1 79 353372660 -680255524 -1088578049 -5406863 1069087228
            -20059141 -1146311169 -1078198016</internalNodes>
          <leafValues>
            -5.8108806610107422e-01 3.6173814535140991e-01</leafValues></_>
        <_>
          <internalNodes>
            0 -1 92 -822085717 -286339360 -957037882 148818088
            -344496896 -771856969 1451147776 -671091469</internalNodes>
          <leafValues>
            -5.1740235090255737e-01 4.3182072043418884e-01</leafValues></_>
        <_>
          <internalNodes>
            0 -1 5 -144842932 -1291937057 -271786595 -1342187649
            -653329955 -1411466599 -1889533987 10287871</internalNodes>
          <leafValues>
            -6.0782462358474731e-01 3.4722205996513367e-01</leafValues></_>
        <_>
          <internalNodes>
            0 -1 124 -537657458 -1562050641 -1430257916 -1026038074
            -1948527869 286781505 -212876476 -212600841</internalNodes>
          <leafValues>
            -5.0153595209121704e-01 4.1517990827560425e-01</leafValues></_>
        <_>
          <internalNodes>
            0 -1 70 270535384 -76401192 -15804929 -168544188 1573459928
            -1073891140 -1116906049 465046904</internalNodes>
          <leafValues>
            -6.0639631748199463e-01 3.4293812513351440e-01</leafValues></_>
        <_>
          <internalNodes>
            0 -1 110 -705693910 2007746364 34103840 608169727 -154692160
            1084744820 573495276 1643118143</internalNodes>
          <leafValues>
            -6.6935443878173828e-01 2.8648880124092102e-01</leafValues></_>
        <_>
          <internalNodes>
            0 -1 17 278201134 1997347324 2052038139 2146408132 850229742
            836700298 1541143742 2146402190</internalNodes>
          <leafValues>
            -6.3973414897918701e-01 3.0496034026145935e-01</leafValues></_></weakClassifiers></_>
    <!-- stage 8 -->
    <_>
      <maxWeakCount>9</maxWeakCount>
      <stageThreshold>-1.6879004240036011e+00</stageThreshold>
      <weakClassifiers>
        <_>
          <internalNodes>
            0 -1 60 -134217729 -202181633 -7340275 -1048577 -136317441
            -236461601 -527372 -134219777</internalNodes>
          <leafValues>
            -7.1921253204345703e-01 1.9741564989089966e-01</leafValues></_>
        <_>
          <internalNodes>
            0 -1 13 2044 927239133 -35651585 -29732 2142965247 -569347
            535738810 -1074329568</internalNodes>
          <leafValues>
            -6.0383993387222290e-01 3.0479466915130615e-01</leafValues></_>
        <_>
          <internalNodes>
            0 -1 10 -422582550 -1030818098 1724523266 -530120978
            -203988634 4671029 1743248644 -461374601</internalNodes>
          <leafValues>
            -6.4695608615875244e-01 2.9441115260124207e-01</leafValues></_>
        <_>
          <internalNodes>
            0 -1 47 203686288 -1624148639 -205865283 -6990352 6031816
            -345683763 689866972 2063601664</internalNodes>
          <leafValues>
            -5.4939234256744385e-01 3.6166116595268250e-01</leafValues></_>
        <_>
          <internalNodes>
            0 -1 28 -705039104 -59836097 1841264503 -32602305 1958471595
            1089391487 633167679 -454231749</internalNodes>
          <leafValues>
            -6.0028290748596191e-01 3.1164509057998657e-01</leafValues></_>
        <_>
          <internalNodes>
            0 -1 15 -288624897 -806360274 -898699651 149794815
            1691877375 -1728057630 -165150915 -865639881</internalNodes>
          <leafValues>
            -4.1102606058120728e-01 4.7098737955093384e-01</leafValues></_>
        <_>
          <internalNodes>
            0 -1 119 -403966002 -721563658 -51468800 -1041445733
            -440994362 551999099 -1146640465 1426056943</internalNodes>
          <leafValues>
            -5.7128220796585083e-01 3.3160623908042908e-01</leafValues></_>
        <_>
          <internalNodes>
            0 -1 83 389357332 -1085072387 -585057803 2145336280
            -1148703236 -1077149761 968633340 -1346499548</internalNodes>
          <leafValues>
            -5.4928815364837646e-01 3.7541106343269348e-01</leafValues></_>
        <_>
          <internalNodes>
            0 -1 42 -135272946 569376585 1603193994 -10010690 1968661495
            54419895 -205974590 1457473462</internalNodes>
          <leafValues>
            -6.5727484226226807e-01 2.6928424835205078e-01</leafValues></_></weakClassifiers></_>
    <!-- stage 9 -->
    <_>
      <maxWeakCount>9</maxWeakCount>
      <stageThreshold>-1.7330567836761475e+00</stageThreshold>
      <weakClassifiers>
        <_>
          <internalNodes>
            0 -1 33 -1086324737 -578816833 -1614836289 -4256321
            -84104961 -120524552 -1107436289 -142081</internalNodes>
          <leafValues>
            -6.4842158555984497e-01 3.3827421069145203e-01</leafValues></_>
        <_>
          <internalNodes>
            0 -1 52 -8273 -236195329 -72483282 -33559316 -50604545
            1357503986 -1109405697 -35730177</internalNodes>
          <leafValues>
            -5.5966228246688843e-01 3.5480502247810364e-01</leafValues></_>
        <_>
          <internalNodes>
            0 -1 84 525328 2141208564 -19257347 1036286909 1573267709
            -54952264 -1162035458 148640768</internalNodes>
          <leafValues>
            -6.7217409610748291e-01 2.5866937637329102e-01</leafValues></_>
        <_>
          <internalNodes>
            0 -1 21 -135270642 -252971010 -2200 -1053203 -402755075
            1693972471 2147445164 1419770350</internalNodes>
          <leafValues>
            -6.1325323581695557e-01 3.2532426714897156e-01</leafValues></_>
        <_>
          <internalNodes>
            0 -1 111 -620757554 -210763927 1990717664 1469667175
            -8655890 1879839534 -177865797 -237077621</internalNodes>
          <leafValues>
            -5.1554727554321289e-01 3.5041651129722595e-01</leafValues></_>
        <_>
          <internalNodes>
            0 -1 76 604249200 -1084426887 -12755459 -1073923632
            -1114972676 -616703268 -1075036161 -1142937460</internalNodes>
          <leafValues>
            -5.6522905826568604e-01 3.2330811023712158e-01</leafValues></_>
        <_>
          <internalNodes>
            0 -1 61 -742393193 -758647214 -288888179 -340791635
            -243534573 -235670544 -9438388 -1186</internalNodes>
          <leafValues>
            -4.3607184290885925e-01 4.0613657236099243e-01</leafValues></_>
        <_>
          <internalNodes>
            0 -1 20 2105191176 -721752227 1327430421 2008923995
            1336807854 -2002112673 82853387 209687487</internalNodes>
          <leafValues>
            -6.2009847164154053e-01 2.9649224877357483e-01</leafValues></_>
        <_>
          <internalNodes>
            0 -1 122 -436207742 -419442780 -543215360 -173215766
            -44581760 73902583 -1843300544 2003303781</internalNodes>
          <leafValues>
            -6.6683244705200195e-01 2.5006479024887085e-01</leafValues></_></weakClassifiers></_>
    <!-- stage 10 -->
    <_>
      <maxWeakCount>11</maxWeakCount>
      <stageThreshold>-1.6984407901763916e+00</stageThreshold>
      <weakClassifiers>
        <_>
          <internalNodes>
            0 -1 31 -608182785 -12593673 -1077965409 -1614848513
            -138805763 1911874045 -1077937665 -513</internalNodes>
          <leafValues>
            -6.5387624502182007e-01 2.6644262671470642e-01</leafValues></_>
        <_>
          <internalNodes>
            0 -1 68 -3593 -789319049 -370147409 -850919473 -210243181
            -252185225 -2621480 -1575433</internalNodes>
          <leafValues>
            -4.7133606672286987e-01 3.9672702550888062e-01</leafValues></_>
        <_>
          <internalNodes>
            0 -1 98 18889725 1938053616 1031551995 -543327812 1910808060
            -45025092 -570913317 463994888</internalNodes>
          <leafValues>
            -5.6582272052764893e-01 3.2081574201583862e-01</leafValues></_>
        <_>
          <internalNodes>
            0 -1 1 -357564724 -386928914 -308954038 -389551378
            1996488679 -439486026 -173545644 -991430809</internalNodes>
          <leafValues>
            -5.1806837320327759e-01 3.5066145658493042e-01</leafValues></_>
        <_>
          <internalNodes>
            0 -1 75 -1053698 -574160913 -1630010456 455880232 -36417053
            390922207 2113831119 1475180543</internalNodes>
          <leafValues>
            -5.8162212371826172e-01 3.0359551310539246e-01</leafValues></_>
        <_>
          <internalNodes>
            0 -1 7 1422185516 1567907105 -443777042 -1645365362
            1352005037 1440072909 -57741400 -705761282</internalNodes>
          <leafValues>
            -5.9786140918731689e-01 2.7063199877738953e-01</leafValues></_>
        <_>
          <internalNodes>
            0 -1 121 -139461504 -641469525 1442263360 1366554094
            -263002752 1107577408 1443591648 1463022274</internalNodes>
          <leafValues>
            -6.7430847883224487e-01 2.1418826282024384e-01</leafValues></_>
        <_>
          <internalNodes>
            0 -1 48 -957355417 -2031128729 -545993 -134238337 -201982977
            -889522177 -956959885 -804522377</internalNodes>
          <leafValues>
            -3.5802859067916870e-01 4.6611240506172180e-01</leafValues></_>
        <_>
          <internalNodes>
            0 -1 86 864556508 -14805460 727150777 -1073996332 1052549886
            -1652691607 737983228 -1081075460</internalNodes>
          <leafValues>
            -4.8237872123718262e-01 3.5480520129203796e-01</leafValues></_>
        <_>
          <internalNodes>
            0 -1 71 -538197778 2080349037 739118634 103245377 1699046588
            1433297542 -1342966789 938472719</internalNodes>
          <leafValues>
            -5.9042781591415405e-01 2.8196191787719727e-01</leafValues></_>
        <_>
          <internalNodes>
            0 -1 91 -135268386 2106566370 -2033400082 112184686
            843570147 572714817 207711471 -403968097</internalNodes>
          <leafValues>
            -4.8449712991714478e-01 3.2915627956390381e-01</leafValues></_></weakClassifiers></_>
    <!-- stage 11 -->
    <_>
      <maxWeakCount>11</maxWeakCount>
      <stageThreshold>-1.7678521871566772e+00</stageThreshold>
      <weakClassifiers>
        <_>
          <internalNodes>
            0 -1 32 -1153443841 -536673 -1146105377 -6873649 -1073746689
            -386342672 -56623617 -8705</internalNodes>
          <leafValues>
            -6.1033654212951660e-01 4.3719297647476196e-01</leafValues></_>
        <_>
          <internalNodes>
            0 -1 29 1431435227 -143533212 -4227073 -7340209 865729519
            -1390555508 -1678246929 -808480881</internalNodes>
          <leafValues>
            -3.8629671931266785e-01 4.8789888620376587e-01</leafValues></_>
        <_>
          <internalNodes>
            0 -1 125 -2142 -1499267101 -70256640 -2037976182 -1080388606
            1710552583 2147475984 -671615021</internalNodes>
          <leafValues>
            -5.7297033071517944e-01 3.0542787909507751e-01</leafValues></_>
        <_>
          <internalNodes>
            0 -1 74 -739593284 -576782340 -69241481 2078078892 -69469186
            -117749474 -407896844 771553276</internalNodes>
          <leafValues>
            -5.2589988708496094e-01 3.2401165366172791e-01</leafValues></_>
        <_>
          <internalNodes>
            0 -1 106 1092579562 2004296695 1197465427 1937462751
            273648554 45232170 1951329006 1397217306</internalNodes>
          <leafValues>
            -6.2194043397903442e-01 2.7044463157653809e-01</leafValues></_>
        <_>
          <internalNodes>
            0 -1 11 -587316578 -1400625 -1624629058 -1087560021
            -1785982788 1480346942 -975663873 -812732689</internalNodes>
          <leafValues>
            -4.4052025675773621e-01 3.9423432946205139e-01</leafValues></_>
        <_>
          <internalNodes>
            0 -1 36 1137522432 1744028831 -538979057 -37814553
            1912494078 46066687 -146737302 -990918770</internalNodes>
          <leafValues>
            -5.4083281755447388e-01 3.0657413601875305e-01</leafValues></_>
        <_>
          <internalNodes>
            0 -1 2 -1532059132 -543626026 -2426531 -33757968 1470769332
            -819550 2119141343 2029022752</internalNodes>
          <leafValues>
            -5.8638775348663330e-01 2.7828544378280640e-01</leafValues></_>
        <_>
          <internalNodes>
            0 -1 73 -135270673 644263470 -354964980 863988383 1700012024
            926072350 2009464268 -672924673</internalNodes>
          <leafValues>
            -4.7565349936485291e-01 3.4344300627708435e-01</leafValues></_>
        <_>
          <internalNodes>
            0 -1 93 -3158 1540011918 -37998160 1848519434 -1029925138
            1096610958 919852714 1433662935</internalNodes>
          <leafValues>
            -6.0665190219879150e-01 2.5850984454154968e-01</leafValues></_>
        <_>
          <internalNodes>
            0 -1 117 -157293108 325944064 1452503266 335532922
            -1982989654 6983971 1006712010 356742003</internalNodes>
          <leafValues>
            -6.7437905073165894e-01 2.2418431937694550e-01</leafValues></_></weakClassifiers></_>
    <!-- stage 12 -->
    <_>
      <maxWeakCount>11</maxWeakCount>
      <stageThreshold>-2.2394807338714600e+00</stageThreshold>
      <weakClassifiers>
        <_>
          <internalNodes>
            0 -1 30 1427241437 1607716636 938639358 -6424587 -1076891921
            -1347434328 -33555714 -8962</internalNodes>
          <leafValues>
            -6.7818695306777954e-01 1.2402234971523285e-01</leafValues></_>
        <_>
          <internalNodes>
            0 -1 65 -201327105 -245106689 -1053041 -68223057 -704645905
            -235519563 -9342 -67669801</internalNodes>
          <leafValues>
            -4.6099096536636353e-01 3.6126390099525452e-01</leafValues></_>
        <_>
          <internalNodes>
            0 -1 23 -1724311617 -14013394 1072574207 -1299013 1977382141
            -7815681 -185047813 -1131922438</internalNodes>
          <leafValues>
            -3.9158675074577332e-01 4.3312951922416687e-01</leafValues></_>
        <_>
          <internalNodes>
            0 -1 9 -538030337 -320143362 1856433407 -1061094708
            2113765359 -842637868 1598515199 -931659905</internalNodes>
          <leafValues>
            -3.6284330487251282e-01 4.3091490864753723e-01</leafValues></_>
        <_>
          <internalNodes>
            0 -1 49 -940578906 703592690 2144240623 -1177140235
            1207009087 -537002145 1744306151 1357260650</internalNodes>
          <leafValues>
            -5.7186603546142578e-01 2.6557096838951111e-01</leafValues></_>
        <_>
          <internalNodes>
            0 -1 120 -1258308 -8438804 749734640 -538071092 -271608674
            -271704274 2145330650 -10801569</internalNodes>
          <leafValues>
            -3.5206487774848938e-01 4.2448770999908447e-01</leafValues></_>
        <_>
          <internalNodes>
            0 -1 12 -2138832696 -81365680 -1805105161 -1190910924
            -679210246 -572103617 -1360372738 2075399463</internalNodes>
          <leafValues>
            -5.2207589149475098e-01 2.9589676856994629e-01</leafValues></_>
        <_>
          <internalNodes>
            0 -1 44 1410593678 1136316356 639299786 2146954394
            1945791820 199712 -1026654625 1945086685</internalNodes>
          <leafValues>
            -7.1111816167831421e-01 2.0603884756565094e-01</leafValues></_>
        <_>
          <internalNodes>
            0 -1 109 14683644 2000746366 2142582719 -2867792 -1618985538
            -1773861 -1396217105 -1930164737</internalNodes>
          <leafValues>
            -4.6411034464836121e-01 3.2171934843063354e-01</leafValues></_>
        <_>
          <internalNodes>
            0 -1 95 -105982840 1561720648 -1331817982 -217130074
            -251169466 1090545155 -1017457697 -955252801</internalNodes>
          <leafValues>
            -5.4944247007369995e-01 2.7655491232872009e-01</leafValues></_>
        <_>
          <internalNodes>
            0 -1 102 -71654708 1258800590 2008614936 2079432604
            -201808932 256806436 983408858 2078245791</internalNodes>
          <leafValues>
            -5.7588940858840942e-01 2.6367789506912231e-01</leafValues></_></weakClassifiers></_>
    <!-- stage 13 -->
    <_>
      <maxWeakCount>11</maxWeakCount>
      <stageThreshold>-1.6301883459091187e+00</stageThreshold>
      <weakClassifiers>
        <_>
          <internalNodes>
            0 -1 18 -286725505 -90784017 2042493759 -119807781 -9217
            -88362786 -1704065 -656228235</internalNodes>
          <leafValues>
            -7.1635800600051880e-01 5.7274118065834045e-02</leafValues></_>
        <_>
          <internalNodes>
            0 -1 22 -84152834 -1293132299 871717327 859676519 -616593204
            975171208 -123782584 996146127</internalNodes>
          <leafValues>
            -5.9445464611053467e-01 2.3687694966793060e-01</leafValues></_>
        <_>
          <internalNodes>
            0 -1 72 -117998446 -729962256 -9470849 -1919029702
            -1405616815 -39609474 -243328238 -880884865</internalNodes>
          <leafValues>
            -4.5974919199943542e-01 3.4648218750953674e-01</leafValues></_>
        <_>
          <internalNodes>
            0 -1 94 -787090945 -100927901 2000023503 -170002930
            -168899121 -1163361592 -437261649 -615536470</internalNodes>
          <leafValues>
            -2.7378138899803162e-01 5.9831309318542480e-01</leafValues></_>
        <_>
          <internalNodes>
            0 -1 37 1632618434 -2052326489 -1147084694 -1273355
            1955189727 347335157 -1677489238 1978888418</internalNodes>
          <leafValues>
            -6.1297976970672607e-01 3.1524831056594849e-01</leafValues></_>
        <_>
          <internalNodes>
            0 -1 58 -65743 -1208303638 -1124172335 -140444988 -33604900
            -2140440775 -214290 -96667649</internalNodes>
          <leafValues>
            -3.2895541191101074e-01 4.9535426497459412e-01</leafValues></_>
        <_>
          <internalNodes>
            0 -1 114 -550966582 1902092482 79958423 969638082 547001359
            1204237699 -2133133365 1069003467</internalNodes>
          <leafValues>
            -5.1108217239379883e-01 3.0843025445938110e-01</leafValues></_>
        <_>
          <internalNodes>
            0 -1 103 -586555518 -1349807237 -1060317888 -74806765
            -1173471216 654983723 1241699490 -771521233</internalNodes>
          <leafValues>
            -4.5583391189575195e-01 3.5435834527015686e-01</leafValues></_>
        <_>
          <internalNodes>
            0 -1 55 2109858381 -109213799 1802326510 -1635262930
            2007130562 1947232180 746375359 -1331224386</internalNodes>
          <leafValues>
            -5.5947786569595337e-01 2.8401419520378113e-01</leafValues></_>
        <_>
          <internalNodes>
            0 -1 116 -606084354 1075139560 -114156432 -1725227655
            -847081734 171989493 1325419184 2133196735</internalNodes>
          <leafValues>
            -6.2455022335052490e-01 2.2401644289493561e-01</leafValues></_>
        <_>
          <internalNodes>
            0 -1 118 -88457152 63641500 118882576 1428021023 -1727952512
            1595607543 242167304 -1236588467</internalNodes>
          <leafValues>
            -5.6291985511779785e-01 2.7469426393508911e-01</leafValues></_></weakClassifiers></_>
    <!-- stage 14 -->
    <_>
      <maxWeakCount>12</maxWeakCount>
      <stageThreshold>-1.7296272516250610e+00</stageThreshold>
      <weakClassifiers>
        <_>
          <internalNodes>
            0 -1 25 1978529791 2143580959 -238454305 -570503108
            -831661825 -21966170 -858788658 -34816056</internalNodes>
          <leafValues>
            -6.7775493860244751e-01 2.0327869057655334e-01</leafValues></_>
        <_>
          <internalNodes>
            0 -1 39 -1853684485 -73460201 -1660315431 -40660603
            1427000284 -642235158 2038991807 -16770512</internalNodes>
          <leafValues>
            -4.2488366365432739e-01 4.2618840932846069e-01</leafValues></_>
        <_>
          <internalNodes>
            0 -1 69 -552347982 -570481506 -716809222 -1390951888
            794235569 -373358446 -100017670 -593573382</internalNodes>
          <leafValues>
            -4.1281229257583618e-01 4.1375765204429626e-01</leafValues></_>
        <_>
          <internalNodes>
            0 -1 53 -1913131488 -1856024525 -267825142 -527544090
            -1037360892 555385241 -715929302 -328224425</internalNodes>
          <leafValues>
            -5.8398795127868652e-01 2.8701773285865784e-01</leafValues></_>
        <_>
          <internalNodes>
            0 -1 38 -1060763634 -1189688596 210404782 -1080823404
            -2122317608 91776148 971522393 282718010</internalNodes>
          <leafValues>
            -6.3200628757476807e-01 2.7918428182601929e-01</leafValues></_>
        <_>
          <internalNodes>
            0 -1 78 -250628164 -707316315 1398342197 1838936995
            2060163133 1197670433 -1971213894 965252030</internalNodes>
          <leafValues>
            -4.6331742405891418e-01 3.8535159826278687e-01</leafValues></_>
        <_>
          <internalNodes>
            0 -1 0 -1564040250 -2079931326 -804764856 -817321974
            840643088 596042408 -920222347 -238590638</internalNodes>
          <leafValues>
            -5.4208606481552124e-01 3.0140930414199829e-01</leafValues></_>
        <_>
          <internalNodes>
            0 -1 66 922358512 2063630476 983093 -533364464 -2001432372
            -627965840 151005579 235606818</internalNodes>
          <leafValues>
            -6.2574756145477295e-01 2.9091069102287292e-01</leafValues></_>
        <_>
          <internalNodes>
            0 -1 101 -134634078 1702993045 302108931 1460098674
            -1869657969 1092003963 54818858 394213806</internalNodes>
          <leafValues>
            -5.6946915388107300e-01 3.0447036027908325e-01</leafValues></_>
        <_>
          <internalNodes>
            0 -1 113 911073402 -32553838 1359266458 1436912644
            -2113778598 -640991098 -2119080705 -575268933</internalNodes>
          <leafValues>
            -4.1793996095657349e-01 4.3427574634552002e-01</leafValues></_>
        <_>
          <internalNodes>
            0 -1 87 99933439 989134840 1006579575 972464057 912561341
            -1688338492 -1795363875 -4375676</internalNodes>
          <leafValues>
            -3.5174521803855896e-01 5.2777051925659180e-01</leafValues></_>
        <_>
          <internalNodes>
            0 -1 100 -101723873 -475269784 -1389979623 -1036864807
            -1883538280 43167411 2145378247 -939540325</internalNodes>
          <leafValues>
            -2.9155626893043518e-01 6.0417491197586060e-01</leafValues></_></weakClassifiers></_></stages>
  <features>
    <_>
      <rect>
        0 0 1 1</rect></_>
    <_>
      <rect>
        0 0 1 3</rect></_>
    <_>
      <rect>
        0 0 3 1</rect></_>
    <_>
      <rect>
        0 0 3 4</rect></_>
    <_>
      <rect>
        0 0 15 2</rect></_>
    <_>
      <rect>
        0 1 8 5</rect></_>
    <_>
      <rect>
        0 2 1 3</rect></_>
    <_>
      <rect>
        0 2 15 4</rect></_>
    <_>
      <rect>
        0 4 1 3</rect></_>
    <_>
      <rect>
        0 7 2 3</rect></_>
    <_>
      <rect>
        0 8 1 2</rect></_>
    <_>
      <rect>
        0 9 14 2</rect></_>
    <_>
      <rect>
        0 13 20 1</rect></_>
    <_>
      <rect>
        1 0 4 1</rect></_>
    <_>
      <rect>
        1 0 14 1</rect></_>
    <_>
      <rect>
        1 1 2 3</rect></_>
    <_>
      <rect>
        2 0 13 1</rect></_>
    <_>
      <rect>
        2 0 14 3</rect></_>
    <_>
      <rect>
        2 1 2 3</rect></_>
    <_>
      <rect>
        2 1 3 5</rect></_>
    <_>
      <rect>
        2 1 7 2</rect></_>
    <_>
      <rect>
        2 2 3 3</rect></_>
    <_>
      <rect>
        2 7 7 3</rect></_>
    <_>
      <rect>
        2 10 4 2</rect></_>
    <_>
      <rect>
        2 13 15 1</rect></_>
    <_>
      <rect>
        3 0 4 3</rect></_>
    <_>
      <rect>
        3 0 6 3</rect></_>
    <_>
      <rect>
        3 13 11 1</rect></_>
    <_>
      <rect>
        4 0 6 3</rect></_>
    <_>
      <rect>
        4 0 11 2</rect></_>
    <_>
      <rect>
        4 1 8 2</rect></_>
    <_>
      <rect>
        4 4 4 4</rect></_>
    <_>
      <rect>
        4 6 4 3</rect></_>
    <_>
      <rect>
        4 7 4 3</rect></_>
    <_>
      <rect>
        4 13 13 1</rect></_>
    <_>
      <rect>
        4 13 14 1</rect></_>
    <_>
      <rect>
        5 0 2 3</rect></_>
    <_>
      <rect>
        5 1 3 4</rect></_>
    <_>
      <rect>
        5 8 8 2</rect></_>
    <_>
      <rect>
        5 12 14 1</rect></_>
    <_>
      <rect>
        6 3 2 4</rect></_>
    <_>
      <rect>
        6 4 1 3</rect></_>
    <_>
      <rect>
        7 1 2 4</rect></_>
    <_>
      <rect>
        7 7 1 2</rect></_>
    <_>
      <rect>
        8 1 7 2</rect></_>
    <_>
      <rect>
        8 3 7 4</rect></_>
    <_>
      <rect>
        8 4 2 3</rect></_>
    <_>
      <rect>
        8 12 18 1</rect></_>
    <_>
      <rect>
        9 0 1 4</rect></_>
    <_>
      <rect>
        9 0 2 3</rect></_>
    <_>
      <rect>
        9 4 1 3</rect></_>
    <_>
      <rect>
        9 7 2 3</rect></_>
    <_>
      <rect>
        10 4 6 3</rect></_>
    <_>
      <rect>
        10 5 4 3</rect></_>
    <_>
      <rect>
        11 3 5 4</rect></_>
    <_>
      <rect>
        11 4 5 3</rect></_>
    <_>
      <rect>
        12 2 5 4</rect></_>
    <_>
      <rect>
        12 4 5 3</rect></_>
    <_>
      <rect>
        12 10 3 2</rect></_>
    <_>
      <rect>
        13 3 4 4</rect></_>
    <_>
      <rect>
        14 1 4 4</rect></_>
    <_>
      <rect>
        14 2 3 4</rect></_>
    <_>
      <rect>
        14 2 4 4</rect></_>
    <_>
      <rect>
        14 3 3 4</rect></_>
    <_>
      <rect>
        14 3 4 4</rect></_>
    <_>
      <rect>
        14 4 4 3</rect></_>
    <_>
      <rect>
        15 0 14 2</rect></_>
    <_>
      <rect>
        15 2 3 4</rect></_>
    <_>
      <rect>
        15 3 3 4</rect></_>
    <_>
      <rect>
        16 4 2 3</rect></_>
    <_>
      <rect>
        16 13 8 1</rect></_>
    <_>
      <rect>
        17 1 5 2</rect></_>
    <_>
      <rect>
        17 2 2 4</rect></_>
    <_>
      <rect>
        17 3 3 2</rect></_>
    <_>
      <rect>
        18 4 1 3</rect></_>
    <_>
      <rect>
        18 10 4 2</rect></_>
    <_>
      <rect>
        19 0 8 1</rect></_>
    <_>
      <rect>
        19 1 4 5</rect></_>
    <_>
      <rect>
        19 3 1 4</rect></_>
    <_>
      <rect>
        20 0 5 1</rect></_>
    <_>
      <rect>
        20 13 7 1</rect></_>
    <_>
      <rect>
        21 0 6 1</rect></_>
    <_>
      <rect>
        21 1 14 1</rect></_>
    <_>
      <rect>
        22 0 11 1</rect></_>
    <_>
      <rect>
        22 13 10 1</rect></_>
    <_>
      <rect>
        23 0 9 1</rect></_>
    <_>
      <rect>
        23 1 7 1</rect></_>
    <_>
      <rect>
        25 1 12 1</rect></_>
    <_>
      <rect>
        26 0 12 1</rect></_>
    <_>
      <rect>
        28 4 2 3</rect></_>
    <_>
      <rect>
        28 13 8 1</rect></_>
    <_>
      <rect>
        29 3 2 4</rect></_>
    <_>
      <rect>
        29 4 1 3</rect></_>
    <_>
      <rect>
        30 8 2 2</rect></_>
    <_>
      <rect>
        31 1 4 2</rect></_>
    <_>
      <rect>
        31 3 2 3</rect></_>
    <_>
      <rect>
        31 4 2 4</rect></_>
    <_>
      <rect>
        31 13 10 1</rect></_>
    <_>
      <rect>
        33 0 9 1</rect></_>
    <_>
      <rect>
        33 5 2 3</rect></_>
    <_>
      <rect>
        36 3 1 3</rect></_>
    <_>
      <rect>
        37 1 4 2</rect></_>
    <_>
      <rect>
        37 10 3 2</rect></_>
    <_>
      <rect>
        38 5 1 2</rect></_>
    <_>
      <rect>
        39 1 8 1</rect></_>
    <_>
      <rect>
        39 4 2 4</rect></_>
    <_>
      <rect>
        40 0 4 3</rect></_>
    <_>
      <rect>
        41 0 4 2</rect></_>
    <_>
      <rect>
        41 4 2 4</rect></_>
    <_>
      <rect>
        43 0 6 1</rect></_>
    <_>
      <rect>
        44 3 2 4</rect></_>
    <_>
      <rect>
        44 5 4 2</rect></_>
    <_>
      <rect>
        44 7 3 3</rect></_>
    <_>
      <rect>
        44 10 3 2</rect></_>
    <_>
      <rect>
        45 0 3 2</rect></_>
    <_>
      <rect>
        47 4 2 3</rect></_>
    <_>
      <rect>
        48 7 2 3</rect></_>
    <_>
      <rect>
        49 4 3 3</rect></_>
    <_>
      <rect>
        49 10 5 2</rect></_>
    <_>
      <rect>
        52 3 2 4</rect></_>
    <_>
      <rect>
        52 10 3 2</rect></_>
    <_>
      <rect>
        56 2 2 4</rect></_>
    <_>
      <rect>
        58 3 2 4</rect></_>
    <_>
      <rect>
        61 2 1 3</rect></_>
    <_>
      <rect>
        61 2 1 4</rect></_>
    <_>
      <rect>
        61 8 1 2</rect></_></features></cascade>
</opencv_storage>
